0.0653194934129715
-0.045109957456588745
0.06856175512075424
-0.011842725798487663
-0.0827484279870987
0.06014459207653999
-0.030210668221116066
-0.06082597374916077
0.07056529819965363
-0.04946662113070488
-0.006632686126977205
-0.07788455486297607
-0.018157484009861946
0.08259866386651993
-0.011630121618509293
-0.038574934005737305
-0.08522491157054901
-0.07763569056987762
-0.01889987848699093
-0.11317669600248337
-0.07092053443193436
0.011985896155238152
-0.00047722767340019345
0.019671956077218056
0.03998437896370888
0.06598760932683945
-0.05808417871594429
-0.016882797703146935
-0.018167493864893913
-0.061645884066820145
-0.028135016560554504
-0.007248204667121172
0.0009703583200462162
-0.024149317294359207
-0.00926295481622219
-0.02362363040447235
-0.08179827779531479
0.09087510406970978
-0.077305369079113
0.009105104021728039
-0.04179097339510918
0.047361038625240326
0.07066109031438828
0.06840670853853226
0.0628153383731842
0.017002267763018608
-0.039604365825653076
-0.06265757232904434
0.03523792326450348
-0.08671829849481583
-0.030707914382219315
-0.08370249718427658
-0.10631230473518372
0.10329202562570572
0.07171721756458282
-0.048790376633405685
-0.07579291611909866
-0.061955180019140244
-0.016690639778971672
0.017961738631129265
0.04138287156820297
0.0902494266629219
-0.1066124439239502
-0.06046666204929352
-0.0660756379365921
-0.012622189708054066
0.08586297184228897
0.03536277264356613
-0.03302354738116264
0.0037215116899460554
0.10433346033096313
0.0650385171175003
0.05253090336918831
-0.04540948569774628
0.06808288395404816
0.05068543553352356
0.08838991075754166
0.07364464551210403
0.03344683721661568
-0.09354742616415024
-0.07152038812637329
0.08966594189405441
0.07176695764064789
0.04070192947983742
-0.05427723377943039
0.044720105826854706
-0.09838125854730606
0.12356394529342651
-0.03098219260573387
0.06712666153907776
-0.07824042439460754
0.08532209694385529
0.05803346633911133
0.015099333599209785
0.08788936585187912
-0.04563723877072334
0.053677987307310104
0.021082870662212372
0.07434255629777908
-0.012555413879454136
-0.025897815823554993
-0.056802280247211456
-0.038696859031915665
0.016958113759756088
0.04025610536336899
-0.038878507912158966
0.00656202482059598
0.029647398740053177
-0.03306002914905548
0.06495113670825958
0.015093951486051083
0.039598219096660614
-0.023169709369540215
0.07632303237915039
0.07337693870067596
0.02506508119404316
0.07383998483419418
-0.04082087427377701
-0.0443994477391243
0.058856792747974396
0.10051030665636063
-0.007821633480489254
0.07676365971565247
0.055117905139923096
-0.1036260724067688
0.06427580118179321
-0.011812249198555946
-0.004426964558660984
-0.015634940937161446
-0.07578329741954803
0.03448695316910744
-0.07026146352291107
0.055893588811159134
0.003274120157584548
-0.046967215836048126
-0.09774276614189148
-0.09873552620410919
0.03905589506030083
-0.01565227098762989
0.009315183386206627
-0.03188417851924896
-0.05862259864807129
0.07451221346855164
0.03134111315011978
0.0036640490870922804
0.011087693274021149
-0.03614548593759537
-0.08747877925634384
-0.09351913630962372
0.041554078459739685
0.10803051292896271
-0.10523103922605515
0.07900401949882507
0.035727180540561676
0.021732458844780922
0.05266822129487991
-0.06397980451583862
0.10989217460155487
0.05198191851377487
0.05809847265481949
-0.05014583840966225
0.026042958721518517
-0.08308343589305878
0.005758116487413645
-0.008008514530956745
-0.11614193767309189
-0.04592707008123398
-0.08339749276638031
0.0730266198515892
-0.010174097493290901
0.06874752044677734
-0.06793437898159027
0.05840974673628807
-0.001134455087594688
0.06989561766386032
0.08422709256410599
-0.04367027431726456
-0.04020533338189125
-0.05106712877750397
0.007028066553175449
0.04490779712796211
0.04308068007230759
-0.056503769010305405
0.04784763231873512
0.07910215854644775
0.005905432160943747
0.04396868124604225
-0.02537030540406704
0.09176678955554962
-0.0297534316778183
-0.10295098274946213
0.027983900159597397
0.06079113855957985
-0.06733477115631104
0.055925529450178146
-0.011867544613778591
-0.04994412139058113
-0.06582909822463989
0.06540175527334213
0.018168777227401733
-0.04454303905367851
-0.03237365931272507
0.009910976514220238
0.021329058334231377
-0.04337258264422417
0.06629257649183273
-0.034332916140556335
0.06602291762828827
0.001899220049381256
-0.047080233693122864
-0.020259780809283257
0.03866233304142952
0.05353108048439026
-0.020967457443475723
0.037868812680244446
-0.025487812235951424
-0.036771368235349655
-0.08873037248849869
-0.03669307753443718
0.0507783442735672
0.06325137615203857
0.048392776399850845
0.11461827158927917
0.06994697451591492
-0.05118182674050331
-0.06249145418405533
-0.0650131031870842
-0.06151338666677475
0.015284533612430096
0.03679009526968002
-0.05404523015022278
-0.1025882288813591
0.046289291232824326
0.05616513267159462
0.03542451933026314
0.02262212708592415
-0.08965713530778885
0.005507480353116989
-0.010937558487057686
-0.02121317759156227
0.043243858963251114
0.027196474373340607
0.00021393844508565962
-0.08688490092754364
-0.07119598239660263
0.036235254257917404
0.02657202258706093
-0.08863625675439835
-0.08567101508378983
0.08535490185022354
-0.03354489430785179
-0.10286374390125275
0.07087626308202744
0.030295977368950844
-0.06566642969846725
-0.06061657890677452
-0.02970837615430355
0.03183341771364212
-0.05556332692503929
0.11235417425632477
-0.022292889654636383
-0.06212898716330528
-0.08821095526218414
-0.020205572247505188
0.05207854509353638
0.03534182533621788
0.0010699533158913255
0.03164348751306534
-0.044931672513484955
0.0942707508802414
-0.022963356226682663
0.04687819257378578
-0.013791915960609913
0.06157314404845238
-0.05291515961289406
0.019929978996515274
0.09128179401159286
-0.09367965161800385
-0.09668528288602829
0.07912825047969818
0.09020128101110458
0.05371282994747162
0.09008870273828506
0.05674596503376961
-0.003973784856498241
-0.04331555217504501
-0.07556848973035812
0.064422607421875
0.05803068354725838
-0.014048071578145027
-0.003133782185614109
0.0606476329267025
-0.0785878524184227
-0.032198697328567505
-0.05480869114398956
-0.0603707954287529
0.09019190073013306
0.04749353975057602
-0.0765271708369255
-0.009788083843886852
0.10863429307937622
0.07428659498691559
-0.09638071060180664
-0.0031588950660079718
-0.09505918622016907
0.08362582325935364
0.011757643893361092
-0.04482351243495941
-0.04361584037542343
0.023522458970546722
0.078269362449646
-0.0932280570268631
-0.003158966777846217
0.08827368915081024
0.0023207662161439657
0.059639353305101395
-0.013388591818511486
-0.09226838499307632
-0.06416437774896622
-0.05859382450580597
-0.127408966422081
-0.02418406680226326
-0.02463851496577263
-0.06561563163995743
-0.014781171455979347
-0.05391591787338257
0.05540842190384865
0.06368088722229004
-0.04229535907506943
-0.07143743336200714
0.0837402194738388
-0.040669701993465424
0.0750359371304512
-0.050539229065179825
-0.006838769186288118
-0.01423898059874773
-0.050119075924158096
0.02268674410879612
-0.014352492988109589
-0.018763577565550804
0.06606762856245041
-0.03442639112472534
-0.0263600442558527
0.1236143708229065
0.07653333246707916
0.05436820536851883
-0.006743940524756908
0.03782740607857704
0.05259549990296364
-0.04953513666987419
-0.0002453516935929656
0.03756355494260788
0.05898827686905861
-0.024165820330381393
0.04719576984643936
0.004535407293587923
-0.0015301384264603257
-0.010299461893737316
0.08480790257453918
0.06834990531206131
-0.06782204657793045
0.02439909428358078
-0.06769909709692001
-0.06806611269712448
0.08536730706691742
-0.019455410540103912
0.06684946268796921
-0.015764174982905388
-0.11652813106775284
-0.10153160989284515
-0.05826295539736748
0.09535098820924759
-0.053265076130628586
-0.04435152933001518
-0.010353952646255493
0.04280048981308937
-0.0901934802532196
0.04370671510696411
0.015381837263703346
0.10330335795879364
-0.1034984290599823
0.0016208605375140905
0.03203333541750908
-0.0056303427554667
0.050681132823228836
-0.0634651929140091
0.03393274545669556
0.09349378198385239
-0.02685064636170864
0.06506787240505219
-0.037814851850271225
-0.0030700743664056063
-0.04239748790860176
-0.05272728204727173
0.07579924911260605
0.08126474171876907
-0.0039685252122581005
0.041397206485271454
0.022287748754024506
0.001803050865419209
0.046244651079177856
0.011790517717599869
-0.07710467278957367
-0.04670772701501846
-0.05623332038521767
-0.06243479996919632
0.011127765290439129
-0.08139622956514359
0.10959964990615845
-0.041137177497148514
0.04154287278652191
-9.158369357464835e-05
-0.09418386220932007
-0.03719118610024452
-0.04124009609222412
0.02508687973022461
0.06419899314641953
0.033933378756046295
-0.0754246860742569
0.06972287595272064
-0.013880646787583828
0.05819016695022583
0.0853579044342041
-0.03976224735379219
0.03604179248213768
0.059220992028713226
0.06189494952559471
0.022410588338971138
0.08620613813400269
0.06905243545770645
-0.012291619554162025
-0.006701542530208826
0.018458394333720207
0.07942534983158112
0.11924432963132858
-0.021382590755820274
0.05205285921692848
-0.052617304027080536
0.044428713619709015
-0.06736087054014206
0.08156978338956833
-0.10403644293546677
-0.07532531023025513
0.04950674995779991
-0.019268512725830078
-0.053762469440698624
0.029702775180339813
-0.02485084719955921
0.0428786538541317
-0.02869287319481373
-0.03495152294635773
-0.009715371765196323
0.008298289030790329
0.00698879873380065
0.08445914089679718
0.02137089893221855
0.04153655096888542
-0.04714961722493172
-0.057752810418605804
-0.026096483692526817
-0.020692599937319756
0.09162304550409317
-0.06571788340806961
-0.09179359674453735
0.016838686540722847
0.10878679901361465
0.0005612875102087855
-0.010637640953063965
-0.06816528737545013
-0.016634149476885796
-0.05486191064119339
0.03847349435091019
-0.036638908088207245
0.07078467309474945
-0.0722787007689476
-0.08366402983665466
-0.04231773689389229
-0.0764647051692009
-0.06266666203737259
0.0347968228161335
0.039905671030282974
-0.06828466802835464
0.08278197050094604
-0.0372144915163517
-0.006385950371623039
-0.10150935500860214
0.07549349218606949
0.04251321405172348
0.00966323260217905
-0.046244699507951736
-0.07532238960266113
-0.039283476769924164
0.02415004000067711
-0.05934054031968117
0.0046383715234696865
-0.07310987263917923
0.060375507920980453
0.01723935268819332
0.07007073611021042
-0.05083469673991203
0.02195568196475506
0.000910637725610286
-0.050169672816991806
-0.10987836122512817
0.037880778312683105
-0.03070858120918274
-0.07904191315174103
0.07106921821832657
-0.026034772396087646
0.0032127785962074995
0.051719117909669876
0.09022945165634155
0.04053090885281563
-0.030195334926247597
-0.0714353546500206
0.030601423233747482
-0.04796190932393074
0.048375628888607025
0.026605892926454544
0.05320572853088379
0.046899113804101944
-0.07647927105426788
-0.03448012098670006
0.12289507687091827
0.03252410143613815
-0.04889366030693054
0.04158995300531387
-0.10091618448495865
-0.017708085477352142
-0.08729847520589828
-0.07458261400461197
0.05457167327404022
-0.05136527121067047
0.059920065104961395
-0.07417742162942886
0.0416068434715271
0.054883405566215515
-0.05116308853030205
0.011372092179954052
0.10900536924600601
0.049250874668359756
0.006891689728945494
-0.010586169548332691
0.026415297761559486
-0.008126253262162209
-0.0054569789208471775
-0.06003996357321739
-0.08416748046875
-0.024820880964398384
0.015179782174527645
-0.08562622219324112
-0.05738924816250801
-0.10409008711576462
-0.029760098084807396
0.015440463088452816
-0.06347224861383438
0.06165113300085068
0.05482647195458412
-0.08705706894397736
-0.05068245902657509
-0.019385846331715584
-0.007224399596452713
0.02704698219895363
0.0374421589076519
-0.07724630832672119
0.01901080086827278
-0.05959385260939598
-0.001994001679122448
0.014801491983234882
-0.011320662684738636
0.0987960547208786
0.05940807983279228
0.11083365976810455
-0.09924349188804626
-0.0823255106806755
0.05205989629030228
0.00021204088989179581
-0.045835815370082855
0.07981935888528824
-0.07814007252454758
0.12524084746837616
0.0591384693980217
-0.021232321858406067
0.04033574089407921
-0.04909409582614899
-0.032279372215270996
0.022238072007894516
-0.01109068002551794
0.06350637227296829
0.04963057488203049
0.0064079007133841515
0.08872493356466293
-0.0909668430685997
-0.007731328252702951
0.04159222170710564
-0.026501892134547234
0.06459052115678787
-0.04680437594652176
-0.057428039610385895
-0.00926160253584385
0.0017783560324460268
-0.09506207704544067
-0.010768169537186623
-0.07616277039051056
-0.06182202696800232
-0.0540827140212059
-0.008980194106698036
0.00047544349217787385
-0.008462372235953808
0.06594888120889664
0.015580669045448303
0.05694541335105896
0.09808023273944855
0.05050947517156601
0.09232880175113678
0.026541482657194138
-0.06455852091312408
-0.041438642889261246
-0.046194568276405334
0.0770801529288292
-0.020176835358142853
0.06678681075572968
0.027814315631985664
-0.010335985571146011
-0.017998529598116875
0.027139026671648026
-0.029813196510076523
0.06828616559505463
0.029411157593131065
0.05205482617020607
0.01907971501350403
-0.047788240015506744
-0.10385939478874207
0.07836263626813889
-0.06275177001953125
0.05799104645848274
-0.04933422803878784
0.0179386418312788
-0.06856904178857803
0.09230492264032364
-0.08317822217941284
0.030532043427228928
-0.036531370133161545
-0.022967489436268806
0.01444987766444683
0.08868555724620819
0.04876899719238281
0.010014924220740795
0.025220783427357674
-0.052372537553310394
0.036516234278678894
-0.07557407766580582
0.056369125843048096
0.0494065061211586
0.02607712522149086
-0.10017135739326477
0.03938598185777664
0.05423057824373245
0.03948552533984184
0.058926984667778015
-0.008130409754812717
-0.09464939683675766
-0.018916979432106018
-0.09551721066236496
0.027507426217198372
-0.08307906240224838
-0.003779503982514143
-0.05885396525263786
0.05118032917380333
-0.08369193226099014
0.06536709517240524
0.041432760655879974
0.06299363076686859
0.09584291279315948
-0.07720623910427094
0.0029869491700083017
0.08007095009088516
0.08327608555555344
-0.02799847722053528
-0.09353191405534744
0.1016758382320404
0.11740557849407196
-0.04387432336807251
0.09264881908893585
0.061551228165626526
0.028499968349933624
-0.069411501288414
0.10187333822250366
-0.08645682781934738
-0.06942957639694214
-0.08785305172204971
0.02806643769145012
-0.06929951161146164
0.062232524156570435
0.0009162311907857656
-0.00275649712421
-0.07112013548612595
0.07725697010755539
-0.05468008667230606
-0.04329286515712738
-0.06999409943819046
-0.06479492783546448
-0.026158040389418602
0.07883813232183456
-0.028335096314549446
-0.05879063531756401
-0.039089664816856384
-0.056340839713811874
0.04511513561010361
0.023798175156116486
0.07906787842512131
-0.0031938902102410793
-0.10246118903160095
-0.08036798238754272
0.024762356653809547
-0.025185680016875267
-0.056877266615629196
0.09379170089960098
-0.04660489782691002
-0.07559769600629807
0.059500712901353836
-0.06453543901443481
0.06407345086336136
-0.006747559178620577
0.01338182296603918
0.08931026607751846
0.014594786800444126
0.006676769349724054
-0.07240735739469528
0.06591746211051941
-0.08292726427316666
-0.008425584994256496
-0.03715243563055992
-0.07648644596338272
0.0870269238948822
0.0755544900894165
0.06609071046113968
-0.06452400982379913
-0.036251384764909744
0.07582931220531464
0.08111338317394257
-0.0037116478197276592
0.02745545096695423
0.03192629665136337
0.09476064145565033
-0.04864325001835823
0.037126898765563965
-0.039855752140283585
-0.0001925250981003046
-0.07194896042346954
-0.08488301187753677
0.010160880163311958
-0.04616507515311241
0.03849263861775398
-0.0627531111240387
0.038301486521959305
-0.03173649311065674
0.008627030998468399
0.10341109335422516
0.0857689380645752
0.019156435504555702
-0.062424227595329285
0.009267031215131283
0.028954805806279182
-0.10612477362155914
0.08494535088539124
-0.051933642476797104
-0.028903057798743248
-0.08313052356243134
-0.05183464288711548
0.09779752045869827
-0.021228356286883354
-0.0552411749958992
-0.041318636387586594
-0.01510734111070633
-0.07530860602855682
0.07482648640871048
0.08084849268198013
-0.02964564599096775
0.06051943451166153
-0.07080542296171188
-0.051669757813215256
0.034344352781772614
0.033804770559072495
-0.08843575417995453
-0.0659179836511612
-0.0015646014362573624
0.01193309761583805
-0.07414056360721588
-0.07555348426103592
0.008864379487931728
0.06613509356975555
0.04480716958642006
-0.0225319042801857
-0.021238943561911583
-0.06513916701078415
0.04040480777621269
-0.043749045580625534
-0.07452749460935593
-0.1102408915758133
-0.0687127634882927
-0.0347999706864357
-0.029319176450371742
0.05027081072330475
-0.059528790414333344
0.055296335369348526
-0.02049322985112667
0.07175629585981369
-0.022144773975014687
-0.018329162150621414
-0.09009072184562683
-0.0022946069948375225
0.0394250713288784
0.01986229419708252
-0.026547769084572792
-0.0009773062774911523
-0.10514967143535614
-0.028213536366820335
-0.07646709680557251
0.10244282335042953
0.10256518423557281
-0.002200278453528881
-0.07923185080289841
0.015101335942745209
0.04535359889268875
0.04739729315042496
-0.046631816774606705
-0.060574211180210114
0.023237036541104317
0.006335006095468998
-0.056297533214092255
-0.0029059143271297216
-0.019760888069868088
0.050731465220451355
0.015121850185096264
-0.0618632435798645
-0.038875382393598557
-0.010492593050003052
-0.04424876347184181
-0.05598282068967819
-0.01945055089890957
0.08048862963914871
0.06825263798236847
-0.05875440686941147
-0.0976634994149208
-0.0856025218963623
0.09610322117805481
-0.026961838826537132
-0.01948017254471779
-0.06991321593523026
0.048101283609867096
0.039584681391716
-0.0030120303854346275
-0.11253708600997925
0.06912803649902344
-0.008489477448165417
-0.06409133225679398
-0.056302472949028015
0.06017149239778519
0.03522724658250809
0.012775766663253307
0.030847864225506783
0.0005932163912802935
0.02719845250248909
-0.052607495337724686
0.050881389528512955
0.0359572097659111
-0.032902657985687256
0.06278632581233978
0.06005201116204262
0.09049022942781448
-0.06030719727277756
-0.042288534343242645
0.08398973196744919
0.08252669870853424
0.037818919867277145
-0.07764463126659393
-0.023014910519123077
-0.004530223552137613
-0.102630116045475
0.08468103408813477
0.04732673615217209
0.05289088934659958
0.10865966230630875
0.015423019416630268
0.07143700122833252
0.052763938903808594
-0.07848865538835526
-0.050759073346853256
0.010155632160604
0.08099126815795898
0.10275828093290329
-0.042093340307474136
-0.10288172215223312
-0.03562666103243828
-0.016859738156199455
-0.025190483778715134
0.0936146005988121
0.0032659012358635664
0.06562387198209763
-0.0285694170743227
0.05762346461415291
-0.0885547325015068
0.032946594059467316
0.00473436526954174
0.1080421730875969
0.07915311306715012
-0.05678129196166992
0.0824122205376625
0.057511597871780396
-0.11298689246177673
-0.025038953870534897
-0.06531457602977753
0.01449960470199585
-0.03274635225534439
-0.023296916857361794
-0.030034519731998444
-0.04890740290284157
0.029430212453007698
0.045563165098428726
0.012046923860907555
0.04918186366558075
-0.011936300434172153
-0.0073270960710942745
-0.06419239938259125
0.005342636723071337
0.07180155813694
-0.03535512462258339
-0.0489339753985405
0.06190694123506546
-0.017222920432686806
0.0677315965294838
-0.045909713953733444
-0.055842384696006775
-0.08253370970487595
0.03365512564778328
0.010402685962617397
0.05729491263628006
0.014113427139818668
-0.06929326802492142
0.04674096778035164
0.008412480354309082
-0.03680146485567093
-0.029620220884680748
-0.01125327404588461
0.02888588421046734
-0.06315577775239944
-0.08767939358949661
-0.031421586871147156
0.07127591222524643
-0.0993577167391777
-0.0533042810857296
-0.011082428507506847
-0.09598933905363083
0.07107653468847275
0.01563200354576111
0.09824460744857788
0.08500347286462784
-0.06537435948848724
-0.07266223430633545
0.05846048519015312
0.002119107637554407
-0.024860335513949394
-0.024251870810985565
-0.08707975596189499
-0.020580783486366272
-0.04209605231881142
-0.005084611009806395
0.09526996314525604
0.042137712240219116
-0.10052675753831863
0.05633135512471199
-0.03696055710315704
0.04093826562166214
0.05364243686199188
-0.016537528485059738
-0.0728033185005188
0.07404033094644547
0.045959264039993286
-0.04917122423648834
0.06812302768230438
0.08531471341848373
0.022639155387878418
-0.06590282917022705
-0.03215636685490608
0.07806476205587387
0.04355921596288681
0.051755454391241074
-0.01969302073121071
0.02381848730146885
-0.09439416974782944
-0.008151654154062271
0.029369588941335678
-0.04665025696158409
-0.1130540743470192
0.053714364767074585
-0.028566760942339897
0.05699435994029045
0.11680380254983902
0.07484825700521469
0.023281969130039215
-0.03067357838153839
0.013284451328217983
-0.06077351048588753
0.04805779829621315
0.11182049661874771
-0.011780556291341782
-0.07766459882259369
-0.05722009018063545
-0.06805134564638138
0.0637299045920372
0.04955775663256645
0.023746713995933533
0.0370597280561924
-0.04821188747882843
0.048226676881313324
0.04602668434381485
-0.02394629269838333
-0.03062562085688114
0.09165901690721512
0.07779669761657715
0.10539323836565018
-0.0027670974377542734
0.06088581308722496
-0.08258535712957382
0.11592573672533035
0.05714447796344757
-0.07603485137224197
-0.03290482610464096
0.09114819765090942
-0.02160738594830036
0.05097034573554993
-0.0006668941350653768
-0.0794411152601242
-0.0026485719718039036
0.07690387964248657
0.08170632272958755
-0.029825178906321526
-0.023612793534994125
-0.05335509032011032
0.052349068224430084
0.04576897621154785
0.02058500610291958
-0.006422580219805241
-0.07549882680177689
-0.05376745015382767
-0.06503623723983765
0.09193054586648941
0.0023771263659000397
-0.018619168549776077
0.06546275317668915
0.09794202446937561
0.033762089908123016
-0.07579556107521057
-0.045306552201509476
-0.040883127599954605
-0.03465096652507782
0.11258384585380554
0.13084617257118225
0.09803959727287292
0.0635235384106636
-0.07054030895233154
-0.042733147740364075
0.0713929682970047
0.08762671053409576
0.070132777094841
0.06339424103498459
-0.03347262367606163
0.04719701409339905
0.07613532245159149
-0.11009843647480011
-0.05120068043470383
0.036882150918245316
0.0334944948554039
0.023418406024575233
-0.09944164752960205
0.008299530483782291
-0.0034941185731440783
-0.02467638999223709
-0.050466280430555344
0.06752888858318329
0.06783746182918549
0.11329617351293564
-0.08214043825864792
-0.08049152791500092
-0.01033048890531063
0.01936975307762623
0.021950867027044296
0.008281122893095016
-0.10374689102172852
-0.03234598785638809
-0.0636727437376976
-0.033750373870134354
-0.09002447873353958
-0.016492102295160294
-0.01326464768499136
0.07100691646337509
0.10122290998697281
0.0481356717646122
-0.10492876172065735
0.03662891685962677
-0.0334298200905323
-0.025613924488425255
0.01248626783490181
0.09718044102191925
-0.04945404827594757
-0.04492783546447754
-0.09007667005062103
-0.09786932915449142
-0.049119047820568085
0.0049462285824120045
0.07767924666404724
0.0969943180680275
0.029233546927571297
0.07085896283388138
0.06641073524951935
0.0306867565959692
-0.038810014724731445
-0.04061102867126465
-0.03725538030266762
0.04066494479775429
0.057337161153554916
0.06356628984212875
0.0709674134850502
0.10684842616319656
-0.04785916581749916
-0.02616088092327118
-0.03493434563279152
-0.05135475471615791
0.018141716718673706
-0.06776787340641022
-0.055394064635038376
0.07314261049032211
0.0004345048510003835
0.07741996645927429
0.028783874586224556
-0.09516782313585281
0.05995316430926323
0.07325705140829086
-0.07450500875711441
0.010167124681174755
0.11135166883468628
0.012464549392461777
-0.019779447466135025
0.004533767234534025
-0.005367245990782976
-0.0007849936955608428
0.05274394527077675
0.02378702163696289
-0.024833688512444496
0.1214437484741211
-0.025957781821489334
-0.04632027819752693
0.004923970904201269
0.07693526893854141
0.025961218401789665
0.09888120740652084
0.08356941491365433
0.052815232425928116
0.054250508546829224
-0.11476419121026993
-0.10187342017889023
0.04339679330587387
-0.05718047916889191
0.09102500230073929
0.08198926597833633
-0.09806913137435913
-0.00995122641324997
-0.07322076708078384
-0.010889510624110699
0.05436137691140175
0.07146356999874115
-0.007165843620896339
0.03707333281636238
0.10224772244691849
-0.025232164189219475
-0.07971803098917007
0.09118083864450455
-0.07967033237218857
0.07117403298616409
-0.005464139860123396
-0.02255447581410408
0.07837318629026413
0.03956857696175575
-0.09139314293861389
-0.055192623287439346
0.09647335857152939
0.08702408522367477
-0.08992031961679459
0.04053060710430145
0.01834227330982685
-0.006376735400408506
0.0694689080119133
0.04735635966062546
-0.008561555296182632
0.07035350799560547
0.0974600687623024
-0.07216539978981018
-0.09618548303842545
-0.07763809710741043
-0.018317896872758865
-0.05464746057987213
0.00674996804445982
-0.04623467102646828
0.0644545629620552
0.07273640483617783
0.030017731711268425
-0.01709013245999813
0.003953223116695881
-0.07610337436199188
-0.06984901428222656
0.08637857437133789
-0.006734196096658707
0.011049197986721992
0.0014189062640070915
-0.03750574588775635
-0.01523017231374979
-0.11322657018899918
0.06654811650514603
-0.06115777790546417
0.09718813747167587
0.022799640893936157
-0.09187640249729156
-0.011078920215368271
-0.0004968904540874064
0.08229664713144302
-0.025334402918815613
-0.04850127175450325
0.0983024314045906
-0.06914553046226501
0.018533168360590935
-0.04733385890722275
0.028388647362589836
0.03694973513484001
-0.029454516246914864
-0.05486999452114105
-0.10640372335910797
-0.08817356824874878
0.07400282472372055
0.010727625340223312
-0.031181277707219124
-0.07690223306417465
-0.044674165546894073
0.060218196362257004
-0.12185440957546234
0.012817729264497757
-0.026214851066470146
-0.11151713877916336
-0.03096749633550644
-0.01303640753030777
-0.0687076523900032
0.11629601567983627
-0.02931678108870983
-0.040222398936748505
0.06863860785961151
0.06672637164592743
0.0608447827398777
0.00815595593303442
-0.04709808900952339
0.05136973410844803
0.05972623452544212
-0.016715774312615395
-0.01588817872107029
0.08942028880119324
-0.030929915606975555
-0.056827083230018616
-0.029993152245879173
0.016751617193222046
-0.010377248749136925
-0.039764635264873505
0.09004275500774384
0.025438528507947922
0.08313895761966705
-0.06704958528280258
0.09629141539335251
-0.005292948335409164
0.0981842651963234
0.022564562037587166
0.09224950522184372
0.011824311688542366
0.057570137083530426
0.03194946423172951
-0.09319595992565155
-0.00628255307674408
0.04714803397655487
-0.06362227350473404
-0.09402408450841904
0.03277096152305603
0.0884474590420723
-0.0038991249166429043
-0.07795749604701996
0.018832935020327568
0.0531599335372448
0.06996554136276245
0.04735155031085014
0.01358746737241745
0.003813886782154441
0.06575312465429306
-0.060703154653310776
0.06639096885919571
0.07322490215301514
0.012985692359507084
-0.08256413042545319
0.04729091748595238
-0.0030346261337399483
0.04867666959762573
0.05410441756248474
-0.014849151484668255
0.06895283609628677
-0.05251943692564964
-0.05798300728201866
0.0829368606209755
0.04245571419596672
-0.04552202671766281
-0.06403932720422745
0.08992459625005722
0.004729560110718012
0.07846200466156006
-0.04367860034108162
0.002052592346444726
-0.04641146585345268
0.08804086595773697
0.06161420792341232
0.010865164920687675
0.010820512659847736
-0.01805073767900467
0.07224143296480179
0.03342311084270477
-0.08438319712877274
-0.08247634023427963
-0.015425259247422218
-0.03989904001355171
0.02826033905148506
0.02254762127995491
0.09664922207593918
0.07731777429580688
-0.025172734633088112
0.024873126298189163
-0.04753950610756874
-0.03054082952439785
-0.10682656615972519
0.0320671908557415
-0.03943021968007088
0.013496831059455872
-0.059581857174634933
-0.018441596999764442
-0.06324690580368042
0.017085593193769455
-0.03718630224466324
-0.015493867918848991
0.06345944851636887
0.009370588697493076
-0.06716909259557724
-0.0035057468339800835
0.06106872111558914
0.06572361290454865
-0.04924619942903519
0.05966440588235855
-0.07908930629491806
0.033244114369153976
0.07193857431411743
0.054106540977954865
-0.0031415026169270277
0.06360890716314316
0.049965761601924896
0.0960012897849083
0.06919007748365402
-0.031188244000077248
0.05343317985534668
0.06469029933214188
0.010957974940538406
0.04608772322535515
-0.030600883066654205
0.08485463261604309
-0.07026279717683792
0.10739422589540482
-0.09783628582954407
0.035433635115623474
0.032332662492990494
0.06065049767494202
-0.008249734528362751
0.10087895393371582
-0.022448182106018066
-0.08277150988578796
-0.03951381519436836
0.11052032560110092
-0.06992992013692856
-0.018378470093011856
0.06898810714483261
-0.021101798862218857
0.0872340053319931
-0.02346777357161045
0.06682667136192322
-0.05636503919959068
-0.0628889873623848
-0.05698300898075104
0.07909456640481949
0.06805139034986496
-0.09199605882167816
0.006081449333578348
0.012924840673804283
0.04547244310379028
-0.11882541328668594
-0.08317910879850388
0.04365413635969162
0.025189973413944244
-0.10037646442651749
0.03309129551053047
-0.0071592736057937145
-0.023156320676207542
0.07192284613847733
-0.009772732853889465
-0.020121684297919273
0.04349731281399727
0.04929134622216225
0.08249272406101227
0.07782600820064545
0.02033761329948902
0.10834243893623352
0.06252879649400711
-0.06476462632417679
-0.021022992208600044
0.02515573799610138
-0.0043069650419056416
-0.057630255818367004
-0.01750262640416622
-0.021472858265042305
-0.02461024560034275
0.058129873126745224
0.05824596807360649
-0.07050440460443497
-0.012130225077271461
0.037377968430519104
-0.055417243391275406
0.0851120874285698
-0.09083586186170578
0.07324790209531784
0.037920646369457245
-0.07804207503795624
0.056499458849430084
-0.052032288163900375
-0.008854486048221588
-0.08420427143573761
0.04490204155445099
-0.04740157350897789
0.08552372455596924
-0.08657451719045639
-0.08381327241659164
-0.04154759645462036
0.0936194509267807
-0.08507515490055084
0.07250575721263885
-0.048964954912662506
-0.07506988942623138
0.0544639527797699
0.04374396800994873
-0.0431833416223526
-0.010492992587387562
0.07964946329593658
-0.08138211816549301
0.08655789494514465
0.03344394639134407
-0.1005009114742279
-0.09833472967147827
0.0939449742436409
-0.09121914952993393
-0.07936591655015945
0.021305112168192863
0.01089876051992178
0.03857170045375824
-0.09767010807991028
-0.000986096914857626
-0.07199010998010635
-0.0752667635679245
-0.02894917130470276
-0.07014516741037369
0.06543838232755661
0.009003806859254837
0.021530037745833397
0.08473903685808182
0.09148836880922318
0.08118311315774918
-0.06434605270624161
-0.06764586269855499
0.027185721322894096
0.06898995488882065
-0.03897324576973915
-0.05826473608613014
0.001462644198909402
-0.07098682969808578
-0.04847295582294464
-0.016661178320646286
0.10375144332647324
0.08053150027990341
0.059367697685956955
0.07347580790519714
0.05425359308719635
-0.06744072586297989
-0.04725237563252449
-0.10257039964199066
-0.0654076561331749
-0.07959767431020737
0.055253658443689346
-0.03230899199843407
0.09191154688596725
0.06112890690565109
0.09874128550291061
0.07753352075815201
-0.05210534855723381
0.01153694186359644
-0.001610322273336351
0.06449947506189346
-0.05657142028212547
0.04396458715200424
0.027421163395047188
0.09206760674715042
-0.046481408178806305
-0.0014149515191093087
0.0458025299012661
-0.029065817594528198
-0.05811776593327522
0.08452381938695908
-0.05850541964173317
0.08434944599866867
-0.08073350787162781
-0.0038834577426314354
-0.0024461140856146812
0.0973401814699173
-0.032925426959991455
0.08300814777612686
0.06945829838514328
-0.031613096594810486
0.08421556651592255
0.015888556838035583
-0.06052646040916443
0.05048932880163193
0.060823485255241394
0.043392784893512726
0.11715638637542725
0.0010815643472597003
0.057023148983716965
0.09152030199766159
-0.09283867478370667
-0.10414334386587143
0.029510432854294777
0.0297830980271101
0.010126779787242413
0.05272505059838295
0.11109083145856857
-0.022176368162035942
-0.08545415103435516
0.047098997980356216
-0.07541444897651672
0.04063360393047333
0.053070250898599625
0.038882892578840256
-0.02225922979414463
0.038344018161296844
0.06522360444068909
-0.08139339834451675
-0.00455643143504858
-0.04507977142930031
-0.02143671363592148
0.06362199038267136
0.05291993170976639
-0.04289655014872551
0.019163887947797775
0.10126440227031708
-0.022637927904725075
0.054912492632865906
0.049664873629808426
0.0813135951757431
0.0491689071059227
0.03569754585623741
-0.021944498643279076
0.08544730395078659
0.06421827524900436
-0.049781493842601776
0.021810384467244148
-0.06151561439037323
-0.04214358329772949
-0.04332919046282768
-0.042588088661432266
-0.05598421022295952
0.0751711055636406
-0.05032510682940483
-0.10473747551441193
-0.01952405646443367
0.05058501288294792
0.09824564307928085
-0.031307369470596313
-0.036573465913534164
-0.07558350265026093
0.046167775988578796
0.019851427525281906
0.0016783764585852623
0.010430681519210339
-0.1055489033460617
-0.037824880331754684
-0.05872936174273491
0.00424082949757576
-0.023914756253361702
0.05177091434597969
-0.048311032354831696
-0.05204961448907852
-0.10555820167064667
0.09440504014492035
-0.08289199322462082
0.0700959786772728
-0.06444231420755386
-0.016831930726766586
-0.016227856278419495
-0.06290461122989655
0.045319702476263046
-0.00737746013328433
-0.06402981281280518
0.010678806342184544
0.017192848026752472
0.040967848151922226
-0.04014934226870537
0.039555251598358154
0.05687878280878067
-0.004263143986463547
0.07697365432977676
0.04269995540380478
-0.021298829466104507
0.03578654304146767
-0.061797142028808594
0.01759180799126625
-0.01501901913434267
-0.007792603690177202
-0.03039441630244255
0.07654415816068649
-0.07486332207918167
-0.01048367004841566
0.11718380451202393
-0.04053875803947449
-0.05931622162461281
0.012391731142997742
0.038301266729831696
0.05810074508190155
0.03138701245188713
0.030718840658664703
-0.0540512278676033
0.05134233459830284
-0.03969051316380501
-0.038039401173591614
-0.023723123595118523
0.08770551532506943
-0.06123034656047821
-0.022649694234132767
0.09444890916347504
-0.003685319796204567
0.0550161749124527
0.09139207750558853
-0.0975647047162056
-0.09483202546834946
-0.0010766686173155904
0.04495468735694885
0.0291121918708086
0.010785624384880066
0.00708953570574522
0.09303703904151917
0.04680860415101051
-0.06307803839445114
-0.10457217693328857
-0.0210029948502779
-0.06099262833595276
0.041395194828510284
0.03614130988717079
0.0772809311747551
-0.0383945032954216
-0.007751761469990015
-0.02110477350652218
-0.06259918212890625
-0.07069721072912216
-0.007445816416293383
0.06680034101009369
0.003737055230885744
-5.157748455530964e-05
-0.06237434223294258
0.10023147612810135
0.01429526787251234
0.03567260503768921
-0.021442463621497154
0.06308279931545258
-0.0008311204728670418
0.02983253449201584
0.033491626381874084
-0.030478691682219505
0.08300609886646271
0.07836870849132538
-0.02775610238313675
0.08002842217683792
-0.07879145443439484
0.03063100203871727
-0.0885237604379654
0.1089295893907547
0.07864385098218918
-0.05424818396568298
-0.004713437985628843
-0.07644253224134445
0.04367576912045479
0.09870041161775589
-0.10550473630428314
-0.03086070343852043
-0.012775315903127193
-0.042459636926651
0.08797729015350342
-0.10989240556955338
0.04736658185720444
0.0611671544611454
-0.12426486611366272
0.05549723282456398
-0.020962238311767578
-0.03855423256754875
-0.11088228225708008
-0.015355133451521397
0.06336376070976257
-0.002615696284919977
-0.0180205088108778
-0.025521861389279366
0.007682562340050936
0.07725319266319275
0.04886474832892418
-0.014824310317635536
0.09168573468923569
0.0600719191133976
0.06481102854013443
-0.03026857040822506
-0.04269116744399071
0.01593385450541973
-0.08206233382225037
0.023959755897521973
-0.013818671926856041
0.08807352185249329
0.09262415766716003
0.06639094650745392
0.01724192127585411
0.023375378921628
-0.07764746993780136
0.0006550895050168037
-0.028434237465262413
0.0714627280831337
0.01841386780142784
0.02959517203271389
-0.03888208046555519
-0.07630279660224915
0.05159236118197441
-0.015274710953235626
-0.1065664067864418
0.03923807293176651
0.048341453075408936
0.016841299831867218
-0.021436044946312904
0.051389429718256
0.048453181982040405
0.05293504521250725
-0.004612504038959742
-0.0909155085682869
0.02008148655295372
-0.09960849583148956
0.007216594181954861
0.018866151571273804
-0.03856220841407776
-0.002997766016051173
0.023124516010284424
-0.07800287753343582
0.05924439802765846
0.005895950831472874
0.09285888820886612
-0.07133281975984573
0.002816068008542061
0.047507092356681824
-0.09357313066720963
-0.08222457766532898
-0.1075349673628807
0.06652727723121643
0.08008674532175064
0.08960795402526855
-0.00547301210463047
0.015691760927438736
0.021454736590385437
0.07422737777233124
-0.017656153067946434
0.03908935561776161
-0.07862596958875656
0.04927581176161766
0.004901575855910778
-0.05210324376821518
-0.06955840438604355
-0.08881073445081711
0.04817045107483864
0.033835988491773605
0.03832351788878441
0.061225466430187225
0.0042857578955590725
0.041059643030166626
0.04523639753460884
0.07931803166866302
-0.04202330484986305
0.04299591854214668
-0.004060959909111261
-0.049311306327581406
-0.05064423009753227
-0.01872163824737072
-0.04455956816673279
0.03430633619427681
-0.019267527386546135
-0.035733647644519806
0.027334852144122124
0.04556523263454437
-0.0882784053683281
-0.07134801894426346
-0.05943642184138298
0.1005382314324379
0.05659818276762962
-0.036665596067905426
-0.024189885705709457
0.07066620141267776
0.07262042909860611
-0.07910221070051193
0.033967092633247375
-0.09518458694219589
-0.05395898595452309
-0.004663884174078703
-0.06958647817373276
-0.019018035382032394
-0.08850279450416565
0.08637426048517227
0.09565185010433197
0.09007815271615982
0.03710440546274185
-0.04939980432391167
0.002147302031517029
-0.08092325180768967
-0.017201051115989685
-0.07187456637620926
-0.1005466878414154
0.03255454823374748
0.04012487828731537
-0.0655783861875534
-0.05990074202418327
0.0009133834973908961
0.057354871183633804
-0.043641235679388046
-0.059994328767061234
0.010753527283668518
0.07578878104686737
0.032484788447618484
-0.022443324327468872
-0.06594925373792648
0.0471322126686573
0.0776716098189354
0.003650028258562088
-0.02933741919696331
-0.10359431058168411
0.08991705626249313
0.10444199293851852
0.07337231934070587
0.03390150144696236
0.07170051336288452
-0.04904885217547417
0.0693763792514801
-0.008990991860628128
-0.005586056504398584
0.03504566103219986
0.061428703367710114
-0.03703073412179947
0.005654040724039078
-0.0799916535615921
-0.10078023374080658
0.0866939052939415
0.0373065322637558
0.09311383217573166
-0.019359353929758072
0.06023719534277916
-0.08541756868362427
0.040968332439661026
0.012440712191164494
0.04404423385858536
0.0882539227604866
-0.06858710944652557
-0.08145913481712341
0.017037110403180122
0.06618008762598038
-0.0617261566221714
0.08297844231128693
0.06622584164142609
0.06393595039844513
0.06398875266313553
0.043689604848623276
0.0170243289321661
-0.028679782524704933
-0.00359926326200366
-0.07375150918960571
-0.044531144201755524
0.032706987112760544
-0.06534644961357117
-0.08949845284223557
-0.002914260607212782
0.04141424968838692
-0.07647926360368729
0.0348421186208725
-0.06350723654031754
0.05390568822622299
0.08219366520643234
0.08283981680870056
-0.07353207468986511
-0.07731426507234573
0.03809428587555885
-0.025659944862127304
-0.08273441344499588
0.013187825679779053
-0.048215873539447784
0.028344430029392242
0.0012450701324269176
-0.0707569271326065
0.04242124408483505
-0.0791233628988266
0.10172626376152039
0.07201138883829117
-0.045319609344005585
-0.019873768091201782
-0.022241907194256783
-0.056052643805742264
0.06504005193710327
0.06804657727479935
-0.013266841880977154
-0.03425862640142441
0.08313436061143875
0.07324334979057312
-0.08933620154857635
0.1001935675740242
-0.07189644128084183
0.04812217876315117
0.09460819512605667
0.027869047597050667
0.0143192233517766
-0.06063811853528023
0.05048971250653267
0.09675438702106476
0.09341388195753098
-0.033736784011125565
-0.025726767256855965
0.09923121333122253
-0.10254635661840439
0.00853653997182846
-0.09873877465724945
-0.008287779055535793
0.02597206085920334
-0.035026341676712036
-0.10725639015436172
0.01863471418619156
0.007242053281515837
0.03936661034822464
0.029989711940288544
-0.05739160627126694
-0.06323821097612381
0.05576379597187042
-0.04947363957762718
-0.08323714137077332
-0.02145676501095295
0.07835755497217178
0.019334087148308754
0.0915440246462822
-0.07221847027540207
-0.061235539615154266
-0.08026953786611557
0.08345363289117813
0.010216488502919674
-0.08255390077829361
-0.04651712253689766
-0.04519851133227348
0.05236184969544411
0.022209420800209045
-0.021530603989958763
0.07327157258987427
0.08044880628585815
-0.00952141359448433
-0.027418803423643112
0.022737763822078705
0.10367853194475174
-0.06538651883602142
0.033779341727495193
0.027888154610991478
0.029160521924495697
0.021600943058729172
0.06756607443094254
-0.050890836864709854
0.09426653385162354
-0.10123918205499649
0.08513526618480682
-0.061104245483875275
0.017271297052502632
-0.011521317064762115
-0.05598815903067589
-0.02284562960267067
-0.09295373409986496
-0.01323168259114027
-0.0672149658203125
-0.10346263647079468
0.05910743400454521
0.06462756544351578
-0.07136502861976624
0.05734808370471001
-0.027139343321323395
0.07336372882127762
0.0369727723300457
0.07765710353851318
-0.07516686618328094
-0.03237396478652954
-0.018372122198343277
0.10754959285259247
0.05465428903698921
-0.0038163717836141586
0.05364522337913513
0.0664936974644661
0.0006328286253847182
-0.012017058208584785
-0.08808679133653641
0.09550286084413528
-0.03428839147090912
-0.06040816381573677
-0.0100144874304533
-0.061213649809360504
-0.10908584296703339
-0.10350614041090012
-0.07884073257446289
0.0521494522690773
0.01665656454861164
-0.01495012454688549
-0.019309354946017265
-0.07818839699029922
0.0571579746901989
-0.03803957253694534
-0.014887973666191101
-0.04991231486201286
0.1031515896320343
0.02458762377500534
0.028739139437675476
0.007386076729744673
0.009016658179461956
-0.04362639784812927
-0.027775639668107033
0.05206525698304176
0.08659643679857254
-0.05876307189464569
0.034869637340307236
0.0494881235063076
-0.09516444802284241
0.018456263467669487
-0.015917638316750526
0.038327693939208984
0.0314905121922493
-0.014741668477654457
0.006071722600609064
-0.06034321337938309
0.07684166729450226
0.05248842388391495
0.10810364037752151
-0.10039933770895004
0.09189563989639282
-0.09477083384990692
0.0696595162153244
-0.049334567040205
-0.07463796436786652
0.020820872858166695
0.046175386756658554
-0.032009147107601166
0.002523513277992606
-0.005748205352574587
0.03612404316663742
0.019099442288279533
0.06527048349380493
0.06414982676506042
0.07992219924926758
0.003832530463114381
-0.09799111634492874
-0.03816576302051544
-0.06938961893320084
0.04589788243174553
-0.08809377253055573
-0.012678672559559345
-0.014151412062346935
-0.05556877329945564
-0.056001488119363785
0.05784624442458153
-0.04896173253655434
-0.012219436466693878
0.10233665257692337
0.06253890693187714
0.0235570278018713
-0.04912848025560379
0.054996225982904434
-0.030783148482441902
0.0993199497461319
0.047454532235860825
0.07412384450435638
-0.07923965901136398
0.04593070596456528
0.07314638793468475
-0.0338885560631752
-0.03446376323699951
0.06755279004573822
-0.006136870477348566
-0.0648045539855957
-0.04875732585787773
-0.07360437512397766
0.04155201464891434
-0.051855187863111496
-0.009617489762604237
-0.05093635618686676
-0.04100063443183899
-0.08910173922777176
0.012240038253366947
-0.0968172624707222
-0.042105402797460556
-0.08969517797231674
-0.09703235328197479
0.058940522372722626
-0.06275513023138046
-0.03353562578558922
0.09514022618532181
-0.06374987959861755
0.009681915864348412
-0.005017217714339495
0.07462796568870544
-0.07991458475589752
0.026378653943538666
0.0959329903125763
-0.02007206343114376
-0.043701495975255966
-0.06430762261152267
-0.04804345220327377
-0.08265141397714615
-0.047797780483961105
0.06748975813388824
0.08479596674442291
0.0851416364312172
0.0007630481268279254
-0.07507746666669846
-0.07753036916255951
-0.07336325198411942
0.012152058072388172
0.09385456144809723
0.03156459331512451
-0.04537184163928032
0.07977241277694702
-0.007011610083281994
-0.07289909571409225
0.08671119809150696
-0.04279644414782524
-0.04805036261677742
-0.0467478409409523
0.05028891563415527
-0.038059916347265244
-0.06502631306648254
-0.03932661935687065
-0.04925866052508354
-0.008921027183532715
-0.006183655001223087
-0.004738268442451954
0.0008765683160163462
-0.01911626011133194
0.04564934968948364
0.08802418410778046
-0.04266096651554108
0.05043312534689903
-0.08877520263195038
0.040927618741989136
0.0587170347571373
0.016468001529574394
-0.07464215159416199
0.07614607363939285
-0.10173546522855759
0.03578097000718117
0.11220788955688477
0.04474516212940216
-0.04458992928266525
-0.050656840205192566
0.06318720430135727
-0.034618355333805084
0.013929590582847595
0.011181448586285114
0.007643197197467089
-0.09707926958799362
0.040436580777168274
-0.06842593103647232
-0.0013593611074611545
-0.02367679588496685
-0.019143782556056976
-0.09211333841085434
0.04376474395394325
0.032808396965265274
0.09400197863578796
-0.019582830369472504
-0.07221142202615738
-0.09137570858001709
0.0750211849808693
0.028070490807294846
0.09193392097949982
0.0671793669462204
-0.022136108949780464
-0.0994362086057663
-0.0031043074559420347
-0.016694825142621994
-0.03738964721560478
0.06506688892841339
-0.06454099714756012
0.006622220389544964
-0.040709324181079865
0.09033171087503433
0.08400662988424301
-0.05224795266985893
-0.02231619693338871
0.03379174321889877
-0.01720229536294937
0.07012349367141724
-0.00930039957165718
-0.01312358770519495
0.0008230835082940757
-0.077654629945755
-0.08398208022117615
-0.029490254819393158
0.015744227916002274
-0.038059502840042114
-0.050551142543554306
0.061168793588876724
0.08009931445121765
-0.047899119555950165
0.0462493896484375
-0.043130747973918915
0.08439565449953079
0.07059589773416519
0.005235597025603056
-0.028125103563070297
-0.05235636606812477
0.10527972877025604
0.08572924882173538
0.04671748727560043
0.00380537798628211
-0.008317090570926666
0.06921201944351196
-0.046719785779714584
-0.01920614205300808
-0.00048386395792476833
0.08478648215532303
0.10054893791675568
-0.09053715318441391
0.058748312294483185
0.022435639053583145
0.06698653846979141
0.041454680263996124
-0.06101646274328232
0.06633786112070084
0.07121796905994415
-0.07519268989562988
0.07976517081260681
0.007344431709498167
-0.06250810623168945
0.01144391018897295
-0.07411617785692215
0.021030517295002937
0.09146729111671448
0.01679358072578907
0.04893384128808975
-0.0833372250199318
0.02871413342654705
0.036266524344682693
0.004486576654016972
-0.05365162715315819
0.058637283742427826
-0.0491255559027195
-0.0754920169711113
0.09008587896823883
0.0003984747745562345
-0.06882403045892715
-0.05299153923988342
-0.059086572378873825
0.007528198882937431
-0.06747595965862274
0.03309222683310509
0.019102709367871284
0.06079990416765213
0.02764534391462803
0.09506353735923767
-0.05976799875497818
0.06470376253128052
-0.02850031666457653
-0.089323990046978
-0.10151630640029907
0.018369490280747414
0.07403666526079178
-0.06648819148540497
0.048846565186977386
0.0046302443370223045
-0.012074177153408527
0.006531230639666319
0.0066814543679356575
0.03556142374873161
0.0350123792886734
0.061628859490156174
-0.01364006195217371
0.05016303062438965
-0.0034687863662838936
0.07852772623300552
0.1026255413889885
-0.007254595868289471
-0.05948305130004883
-0.08676495403051376
-0.0039030895568430424
0.04922260716557503
-0.05739342048764229
0.04564296081662178
0.03237234801054001
0.06638560444116592
0.07601282000541687
-0.12983731925487518
-0.0563831552863121
-0.06591405719518661
0.06786380708217621
0.01829027757048607
-0.06265798211097717
0.020890291780233383
-0.1009097546339035
-0.07850654423236847
0.10013603419065475
-0.01715378277003765
0.0163416750729084
-0.01765945553779602
0.008356014266610146
-0.08461148291826248
-0.019558092579245567
0.05877280235290527
-0.09777100384235382
-0.09285079687833786
0.002532945480197668
0.048796553164720535
-0.08050794154405594
0.08466514199972153
-0.09605903923511505
-0.03970504179596901
-0.052797507494688034
-0.07621007412672043
-0.06387778371572495
-0.03902925178408623
-0.07559482008218765
-0.012503254227340221
-0.000561493739951402
-0.03644485026597977
0.03556951880455017
-0.011645108461380005
-0.06748341768980026
0.10663308948278427
0.005546828731894493
-0.034619733691215515
0.062191370874643326
-0.10089882463216782
-0.00045989686623215675
0.08535581082105637
0.06139365956187248
-0.04342775419354439
-0.08321251720190048
0.06037909537553787
-0.06338009983301163
-0.07940134406089783
0.11318593472242355
-0.08678460866212845
-0.10385873168706894
-0.04975605756044388
-0.030612917616963387
-0.0283744428306818
-0.05669068172574043
0.08913111686706543
0.07382610440254211
-0.04114528000354767
0.038028039038181305
0.03500326722860336
0.019221778959035873
-0.06434953957796097
0.030585525557398796
-0.06073940545320511
-0.01615981198847294
0.0355137474834919
-0.005594979040324688
0.026798324659466743
-0.08026372641324997
0.0525616854429245
0.027616316452622414
-0.08081777393817902
0.07192179560661316
0.04408331215381622
0.04515131562948227
-0.025831954553723335
0.02961857058107853
0.03305334970355034
-0.019547006115317345
-0.06623438745737076
-0.07513449341058731
-0.057279203087091446
-0.030397165566682816
-0.03283977881073952
0.061458393931388855
-0.03847435861825943
-0.0013829224044457078
0.06455907970666885
-0.05855724215507507
0.043432608246803284
0.051839541643857956
0.07728801667690277
0.044510435312986374
0.052804142236709595
-0.010891606099903584
-0.05529315769672394
-0.002683736151084304
0.04651246219873428
-0.046880897134542465
-0.010126582346856594
-0.021497277542948723
-0.11825332045555115
-0.05757218971848488
0.030972758308053017
-0.0379311740398407
0.09096518158912659
-0.015003715641796589
-0.056234829127788544
-0.016720954328775406
0.10160794854164124
-0.04901354759931564
0.07952862232923508
0.047432586550712585
0.013538985513150692
-0.0818573534488678
-0.07520544528961182
0.04020589217543602
-0.00479411706328392
-0.018520914018154144
-0.056760210543870926
-0.034820593893527985
0.10728710889816284
-0.04478670284152031
0.04072292521595955
0.04596811532974243
-0.09150880575180054
-0.06643066555261612
-0.03166129067540169
0.10573171079158783
-0.07979840040206909
-0.014481563121080399
0.02397596277296543
0.04042185842990875
0.051203902810811996
-0.04076206684112549
-0.022215893492102623
0.0819457545876503
-0.08361005038022995
0.08958335220813751
0.027964580804109573
-0.05812292918562889
0.0038527825381606817
-0.07991047203540802
0.07511993497610092
-0.012605891562998295
-0.05214296281337738
0.05266088247299194
0.016436384990811348
0.08675675094127655
0.05646360293030739
0.021055951714515686
-0.06966258585453033
0.07299541682004929
0.010609135031700134
-0.050079572945833206
0.06946233659982681
-0.06000937521457672
0.09688254445791245
0.017745085060596466
-0.03752272203564644
-0.06823442131280899
-0.09207437932491302
0.06235727667808533
0.08290271461009979
0.003627899568527937
0.046063508838415146
-0.025305112823843956
-0.05947905406355858
-0.00029482514946721494
-0.058953095227479935
-0.08880859613418579
-0.07898003607988358
0.10195764899253845
0.0197591595351696
-0.017451360821723938
-0.08964648097753525
-0.10220712423324585
0.0856718197464943
-0.07828544080257416
0.06779079139232635
0.04587453976273537
0.02527979575097561
0.09711861610412598
-0.07953498512506485
0.0980255976319313
-0.03427466005086899
0.05088886246085167
0.04464518278837204
0.0699271485209465
-0.08703459054231644
0.025567609816789627
0.0914691612124443
0.06520694494247437
-0.10776552557945251
-0.08295737206935883
-0.002382722683250904
0.043900635093450546
-0.048009712249040604
-0.016288291662931442
0.02565464936196804
0.081810362637043
0.0661478191614151
-0.10016275942325592
-0.10235890746116638
-0.10782181471586227
-0.062282055616378784
-0.019354449585080147
-0.04864389821887016
-0.03495960682630539
0.03918394818902016
-0.09373632818460464
0.08017025887966156
-0.05920656397938728
-0.02238970249891281
-0.03582155331969261
-0.02983100153505802
-0.04160201549530029
-0.0837123915553093
0.02851160056889057
0.025149693712592125
-0.026657287031412125
0.06526516377925873
0.08790835738182068
0.08250555396080017
-0.014637420885264874
0.06788485497236252
0.04161175340414047
-0.10222652554512024
-0.05865931138396263
-0.017518864944577217
0.014208401553332806
-0.07748644798994064
0.0020403002854436636
-0.04167043790221214
-0.06174997240304947
0.03331150859594345
-0.04081559553742409
-0.08004133403301239
0.007395727559924126
0.09600532799959183
0.03996358811855316
-0.07602093368768692
0.042792923748493195
-0.0016008064849302173
-0.01856457069516182
-0.10648516565561295
0.038143426179885864
-0.008672559633851051
-0.04797912761569023
0.027317849919199944
0.054208625108003616
0.07744164764881134
-0.1052330955862999
0.029474956914782524
-0.035295989364385605
-0.033969443291425705
0.051466234028339386
-0.07431020587682724
-0.06547007709741592
-0.05374012142419815
0.08357946574687958
-0.05466761812567711
-0.04784347489476204
-0.027086680755019188
0.0775972381234169
-0.05618923902511597
0.011891941539943218
0.05655379965901375
0.04215119034051895
-0.08589820563793182
-0.1005081981420517
-0.04550566524267197
0.03182568773627281
-0.03790175914764404
0.09001103788614273
-0.052408616989851
-0.08497548848390579
0.06344839185476303
0.060757290571928024
0.08821284025907516
0.033867236226797104
-0.058689843863248825
0.023976081982254982
-0.031129054725170135
0.02805808186531067
0.0897074043750763
-0.0618903785943985
-0.022313307970762253
0.07163592427968979
-0.03335488215088844
-0.04625827819108963
-0.03460083529353142
-0.0886630266904831
0.011671333573758602
0.08146631717681885
-0.008901293389499187
-0.028894349932670593
-0.025660395622253418
-0.006238429341465235
0.006885894108563662
-0.04321497678756714
-0.06623471528291702
0.13692930340766907
-0.02818036451935768
0.02513440139591694
0.05761208012700081
0.0412495993077755
-0.020896684378385544
-0.10504895448684692
0.10560914874076843
-0.03670984506607056
-0.022054268047213554
0.08025070279836655
-0.07480549812316895
0.06659078598022461
0.0821898877620697
-0.036768484860658646
0.08993303775787354
0.0075401440262794495
0.05415334179997444
0.08770300447940826
0.08156323432922363
0.07193559408187866
-0.05601715296506882
-0.04070711135864258
-0.07927282899618149
0.01693584769964218
-0.044450920075178146
0.027183879166841507
0.03727967292070389
-0.011514951474964619
0.03308172896504402
-0.061626892536878586
0.01686525158584118
-0.027114534750580788
-0.05056238919496536
0.07645494490861893
-0.043781597167253494
0.06367485970258713
-0.048922907561063766
0.048107489943504333
0.09017278254032135
0.03779575601220131
0.08353880047798157
0.0910092294216156
-0.03933270648121834
0.024981625378131866
-0.07204125821590424
0.05430292338132858
-0.014003320597112179
0.07211682200431824
-0.04223474860191345
-0.01101797353476286
-0.0031945714727044106
-0.018608687445521355
0.03606004640460014
0.001478521153330803
0.09763766825199127
0.06387947499752045
0.08339232206344604
-0.05930645391345024
0.05926597863435745
0.030593950301408768
0.010576033033430576
-0.08008800446987152
-0.0368124283850193
-0.10470543801784515
-0.11722326278686523
-0.01799285225570202
-0.02612910605967045
-0.043295811861753464
-0.028577761724591255
-0.06269470602273941
0.02353498339653015
0.09947502613067627
0.039644137024879456
0.0616886168718338
-0.01581902801990509
-0.007759641855955124
0.019905634224414825
0.0021316141355782747
-0.05360168591141701
-0.03955570235848427
-0.00856522936373949
0.034280553460121155
0.04547202214598656
-0.03239041566848755
0.07186144590377808
0.06991558521986008
-0.05938434600830078
-0.04401339218020439
-0.03491978719830513
0.049880459904670715
-0.07467102259397507
-0.019310645759105682
0.10004755109548569
0.08933378010988235
-0.09425939619541168
-0.035536427050828934
0.0265332218259573
0.07559037208557129
0.054640889167785645
0.07826294004917145
-0.09355618804693222
-0.039240509271621704
-0.06248614564538002
0.07286994159221649
-0.08861243724822998
0.019654346629977226
0.08303982764482498
0.07847898453474045
0.06878210604190826
-0.024246079847216606
0.027493152767419815
0.09653904289007187
0.0305839441716671
-0.05616538226604462
0.04954373091459274
0.07658958435058594
-0.06068423017859459
0.05583922937512398
-0.08334832638502121
0.08082763105630875
-0.01205927599221468
-0.09334142506122589
0.08325255662202835
-0.02484235167503357
0.0377483032643795
-0.03337281569838524
0.08053453266620636
0.027879778295755386
0.05978766828775406
-0.0957852452993393
0.03336744382977486
-0.030877364799380302
-0.07904263585805893
-0.06486310064792633
0.07489949464797974
-0.06492069363594055
-0.07248062640428543
0.030776940286159515
0.013840927742421627
-0.0008599783759564161
0.08916278183460236
-0.06017952039837837
0.027581676840782166
-0.0357140451669693
-0.07159215211868286
-0.006017075385898352
-0.10133412480354309
0.009975013323128223
-0.08258061110973358
0.06649366766214371
0.05059918761253357
-0.04851936548948288
-0.09640557318925858
-0.011044262908399105
-0.05616384744644165
-0.058709412813186646
0.08439864963293076
-0.08808481693267822
-0.09508681297302246
-0.04763052240014076
0.10803427547216415
-0.06491896510124207
-0.07876613736152649
0.027070259675383568
-0.09415312856435776
0.04522514343261719
0.0014897068031132221
0.05336739867925644
0.0838342159986496
-0.05271100625395775
-0.042502161115407944
-0.02129216492176056
-0.019062576815485954
0.04352058470249176
0.08297938108444214
-0.032007262110710144
0.02783316560089588
-0.08569555729627609
-0.08156049251556396
-0.09884943813085556
0.0871059000492096
0.04713623970746994
-0.020726103335618973
-0.04407605528831482
0.06329942494630814
0.0456114336848259
-0.06719086319208145
0.05635792762041092
-0.025331495329737663
0.05636762082576752
0.017578156664967537
-0.07483682781457901
-0.010962368920445442
0.09559661149978638
0.08746583014726639
0.04624398797750473
-0.023324914276599884
-0.0035981740802526474
0.07808268070220947
0.0805974006652832
0.02599588967859745
-0.07623740285634995
0.04285057634115219
0.043201543390750885
0.10315795987844467
0.08700579404830933
-0.05124901607632637
0.06129343435168266
-0.059357959777116776
-0.0824495479464531
-0.09564949572086334
-0.01981222629547119
-0.09093964099884033
-0.047065842896699905
-0.04288649931550026
0.026418622583150864
-0.0006186210084706545
-0.054442908614873886
0.021185841411352158
-0.06341429054737091
0.09399336576461792
-0.07089836895465851
-0.014710246585309505
-0.05339205265045166
-0.003008851082995534
0.04253416135907173
-0.08048989623785019
-0.06972275674343109
-0.04797831550240517
0.08629172295331955
-0.044561490416526794
0.06894247233867645
0.07926418632268906
-0.07328800112009048
-0.02950645051896572
0.04809143766760826
-0.03539084643125534
0.06917253136634827
0.025492455810308456
0.08918527513742447
-0.06299036741256714
0.046740464866161346
-0.026512999087572098
-0.07655693590641022
-0.05439639464020729
-0.07389552891254425
-0.09320704638957977
-0.045564066618680954
0.000378801254555583
-0.07092517614364624
-0.06273175776004791
0.03730391710996628
-0.02137906476855278
0.07765165716409683
0.054493971168994904
-0.05980348587036133
0.05043397471308708
-0.06196935847401619
-0.047391608357429504
0.05819384381175041
-0.05799887701869011
-0.06723783165216446
-0.020034637302160263
0.08835569769144058
0.0892808586359024
-0.019367765635252
0.08991435915231705
-0.0808398425579071
0.021129239350557327
0.08894012123346329
0.018261009827256203
0.05795399844646454
0.048250485211610794
-0.05673358589410782
0.0004419479810167104
-0.02280256524682045
0.031808268278837204
-0.02342168428003788
-0.07360181212425232
-0.08574794977903366
0.00760412123054266
0.06587859243154526
0.04735835641622543
-0.039141200482845306
-0.03154616430401802
-0.009579525329172611
0.01506257988512516
0.03952395170927048
-0.019809665158391
-0.07876840978860855
0.05788809806108475
-0.01973489671945572
-0.045405060052871704
0.01979740709066391
0.07588693499565125
-0.029334701597690582
0.05862529203295708
-0.08022849261760712
0.06832274794578552
0.09154907613992691
0.09551938623189926
-0.08915743231773376
0.09515661001205444
0.008753513917326927
0.07859290391206741
0.06597406417131424
0.0856052115559578
0.02830573171377182
0.03242410346865654
-0.00348905217833817
0.020086748525500298
-0.04189576581120491
0.08332556486129761
0.05145162716507912
-0.06817250698804855
-0.0647566020488739
-0.07890301197767258
0.002756677335128188
-0.08144748955965042
0.0008471094188280404
-0.04956841096282005
0.009669788181781769
-0.0037239594385027885
0.07114565372467041
0.07940411567687988
-0.10102365165948868
0.03274652734398842
-0.09370467811822891
0.06882509589195251
0.06762523204088211
-0.019893011078238487
-0.03803025558590889
0.00556026678532362
-0.07933498919010162
0.03360601142048836
0.014778783544898033
-0.08633507043123245
0.057446375489234924
0.0703793615102768
-0.10568998008966446
-0.02855273149907589
0.0714687630534172
0.05465678870677948
-0.028277914971113205
0.03695269301533699
-0.013526798225939274
0.08331768214702606
-0.01902635768055916
-0.0024114055559039116
-0.03357308730483055
-0.021813584491610527
0.00035049262805841863
-0.03361804783344269
-0.07635186612606049
-0.03457216918468475
0.0054779560305178165
-0.07317029684782028
-0.004855136852711439
-0.09507008641958237
0.007927410304546356
0.08998158574104309
0.024315521121025085
0.010495219379663467
-0.012652534060180187
0.008059177547693253
0.03234320506453514
-0.0007499224157072604
-0.009711128659546375
0.015096847899258137
0.07598860561847687
0.002711213193833828
0.03369665518403053
0.09152568876743317
0.04799024388194084
0.055875666439533234
-0.05845765024423599
-0.09415467083454132
0.05488678067922592
-0.042222652584314346
-0.0714581310749054
-0.061619989573955536
-0.01638503186404705
-0.05573825538158417
0.04883638024330139
0.108021080493927
-0.08293318748474121
-0.0373595766723156
-0.021525634452700615
-0.05411595106124878
-0.05811423063278198
0.02722936123609543
0.06248283386230469
-0.050721898674964905
0.08014947921037674
-0.0006019488791935146
-0.012891273014247417
0.09150487929582596
-0.03454819694161415
-0.022564198821783066
-0.06759995222091675
0.059683363884687424
0.08153191208839417
-0.029655087739229202
0.0007997116190381348
0.05805692821741104
-0.028766736388206482
0.005769491195678711
-0.08224443346261978
0.018241839483380318
-0.06450497359037399
-0.11461073905229568
0.0817609503865242
0.013502250425517559
-0.08897238969802856
-0.09262661635875702
0.023217109963297844
-0.007121699396520853
0.05218450352549553
-0.030367296189069748
-0.06259236484766006
0.07955368608236313
-0.013986770063638687
0.021919576451182365
-0.00386806414462626
-0.02160189487040043
-0.07812792807817459
0.10045059025287628
0.07251306623220444
-0.01582067273557186
0.030815891921520233
-0.03542127087712288
-0.08906152099370956
0.066642627120018
-0.014055405743420124
-0.03497573360800743
-0.060480982065200806
-0.05780835822224617
-0.00857923086732626
0.026287443935871124
0.06648307293653488
-0.09445744752883911
-0.04039477929472923
0.05710475519299507
-0.015888681635260582
-0.08281649649143219
0.04612938314676285
0.042783938348293304
-0.044860657304525375
0.010280386544764042
-0.023874012753367424
0.009047383442521095
-0.07496201246976852
-0.047456420958042145
0.1001698225736618
0.02075871266424656
-0.027038199827075005
-0.08735086768865585
0.06887675821781158
0.06733430176973343
-0.026005573570728302
0.06930273771286011
-0.062343720346689224
0.030961545184254646
0.07875721901655197
0.06019875779747963
0.03313565254211426
-0.050080783665180206
-0.07093732059001923
-0.06144760921597481
-0.006225086748600006
0.054703254252672195
-0.034376803785562515
-0.05458896979689598
0.04022921621799469
0.015019540674984455
-0.03345119208097458
0.04036487638950348
-0.030815238133072853
-0.06069627031683922
0.07985357940196991
0.05469070374965668
-0.09274820238351822
0.04326770454645157
0.10546690970659256
-0.05976644530892372
0.06948421895503998
-0.10520625114440918
-0.046118129044771194
-0.037833601236343384
0.055821582674980164
-0.04188445210456848
-0.01043599471449852
-0.039079368114471436
-0.03763852268457413
-0.06750405579805374
-0.09837345778942108
-0.018714549019932747
0.09358654171228409
0.006340444087982178
0.021883418783545494
0.018918894231319427
0.003578720847144723
0.06645478308200836
0.057516563683748245
0.007362954318523407
-0.08629442751407623
0.0027283586096018553
-0.03215112164616585
0.09678881615400314
-0.06838453561067581
0.042512454092502594
0.022529257461428642
0.02900809422135353
-0.05954409018158913
-0.014762064442038536
0.0834834948182106
0.0791550949215889
0.003803839208558202
0.01054610125720501
0.02265065722167492
-0.046461571007966995
-0.09859689325094223
-0.04133573919534683
0.0691070556640625
-0.02852708287537098
0.016430124640464783
-0.047985490411520004
-0.043790001422166824
-0.02251993492245674
0.030047554522752762
-0.024997636675834656
0.05395356938242912
-0.02541135624051094
0.031064480543136597
-0.03081531822681427
0.048132386058568954
0.028836369514465332
-0.0469151996076107
-0.04053574800491333
-0.07947732508182526
0.029702920466661453
-0.026303309947252274
-0.03603943809866905
0.00032131015905179083
0.10690557211637497
0.07777848094701767
0.001258641597814858
0.05154094472527504
0.10347705334424973
-0.019559066742658615
0.0935768187046051
0.0268719382584095
0.04374837875366211
0.058007966727018356
0.06067606061697006
-0.0967998132109642
0.013319634832441807
0.0755089744925499
0.09829540550708771
-0.0303844902664423
0.07995882630348206
0.06315697729587555
-0.08660957962274551
-0.05197661370038986
0.033793408423662186
-0.04897846654057503
0.05663365125656128
0.01881340704858303
0.11779386550188065
-0.10841617733240128
0.04377824813127518
0.04058527573943138
0.008948581293225288
0.08086211234331131
-0.0001362825569231063
0.03227107599377632
0.1169198527932167
-0.0699249729514122
-0.05719727277755737
0.01567043364048004
0.06218439340591431
0.05087956041097641
0.019879542291164398
0.05216222256422043
0.04900703951716423
0.01312236301600933
-0.06111067533493042
0.09754074364900589
0.07394128292798996
0.08888538181781769
0.07430556416511536
0.004523331765085459
-0.03447199985384941
-0.0035893491003662348
-0.005506440065801144
0.02304224669933319
-0.012147917412221432
0.00895221158862114
-0.016102056950330734
0.07556215673685074
-0.0705755278468132
0.056117404252290726
0.026493413373827934
0.006542738527059555
0.06141361594200134
0.08507611602544785
0.0033627678640186787
-0.0009272318566218019
0.020002996549010277
0.07724558562040329
-0.005174165591597557
0.08994881808757782
-0.06424273550510406
0.02508818916976452
-0.047134265303611755
-0.029554614797234535
0.08672459423542023
0.07846014946699142
-0.03854989632964134
-0.021766962483525276
0.03449281305074692
0.0580708310008049
-0.06976188719272614
0.0466921441257
0.0038057861384004354
0.028707481920719147
-0.04521097242832184
0.081609345972538
0.08027160167694092
0.0515015684068203
-0.10318925231695175
0.07773210853338242
0.021974867209792137
-0.052698832005262375
0.026737254112958908
0.03314494341611862
-0.034025464206933975
0.01614898443222046
0.005957979243248701
0.07867583632469177
-0.01732318103313446
0.08330599218606949
0.08184240758419037
-0.008558596484363079
0.09610389173030853
-0.07373365759849548
-0.04424665495753288
0.04274168238043785
0.06177904084324837
0.06244802102446556
-0.024556150659918785
-0.013785907067358494
0.06312467902898788
-0.08433324098587036
0.037883151322603226
0.055155057460069656
-0.08185569941997528
0.0818626880645752
-0.07795073837041855
0.07114017009735107
0.05991622805595398
-0.04648201912641525
-0.026797272264957428
-0.008840437978506088
0.07982632517814636
0.10990137606859207
0.07214255630970001
0.039793409407138824
-0.022938594222068787
-0.020409153774380684
-0.002446675207465887
0.07525146752595901
-0.07176855951547623
0.044359881430864334
0.11778761446475983
-0.049796875566244125
-0.05423779785633087
0.03558668866753578
0.020174184814095497
-0.04446613788604736
-0.053752969950437546
-0.05477689951658249
-0.01621914654970169
-0.029060792177915573
-0.08313854783773422
-0.006698110606521368
-0.01393713615834713
-0.008548601530492306
0.012235748581588268
0.012957902625203133
-0.05750017985701561
-0.019443942233920097
0.038311682641506195
-0.054396387189626694
0.014812847599387169
-0.04622795805335045
0.020767798647284508
0.013421745970845222
0.07367432862520218
-0.07863708585500717
0.09900999069213867
0.001360255409963429
-0.07955186069011688
0.03626365214586258
-0.05828540399670601
0.08182040601968765
-0.048694316297769547
-0.08017527312040329
0.07746362686157227
-0.0005484074936248362
-0.06465032696723938
-0.06670902669429779
-0.039995573461055756
-0.05965670198202133
-0.02144947275519371
-0.08644022047519684
0.014323579147458076
-0.06886040419340134
-0.008679736405611038
0.05654841661453247
0.06213127821683884
-0.08390766382217407
-0.011931336484849453
-0.005968914832919836
-0.04678322747349739
0.08827926963567734
0.023884570226073265
0.026794414967298508
0.01567971147596836
0.04203719273209572
-0.0318707637488842
0.10033264011144638
0.03699232637882233
0.03647599369287491
0.016971858218312263
0.03743879124522209
0.0775977075099945
-0.03020641580224037
0.089987613260746
0.12017162889242172
0.09353206306695938
-0.013071710243821144
-0.07402607798576355
-0.027813326567411423
-0.08999799191951752
0.08712213486433029
-0.074516661465168
0.08510006219148636
-0.053314320743083954
0.07802272588014603
-0.07386819273233414
0.04439742863178253
-0.0065737534314394
-0.05731859430670738
-0.08204260468482971
-0.08493483811616898
-0.07960105687379837
-0.06960402429103851
0.08495291322469711
-0.027255136519670486
-0.031087882816791534
0.07681742310523987
-0.03872795030474663
0.03393189609050751
0.0844976007938385
-0.10009531676769257
0.038484036922454834
-0.04295256733894348
0.07634022831916809
-0.08813302963972092
-0.011070465669035912
-0.013081110082566738
0.05678713694214821
-0.08717942237854004
0.07843028008937836
0.0479445718228817
-0.00601570587605238
-0.07262321561574936
-0.043858956545591354
0.07296501100063324
-0.07680795341730118
0.08301086723804474
-0.09113547205924988
0.09499356895685196
0.06047749146819115
-0.02607453241944313
0.03041587956249714
-0.018103551119565964
-0.0460505448281765
0.007424036506563425
-0.10209931433200836
-0.041762176901102066
-0.014283090829849243
0.07599718123674393
0.06639288365840912
-0.0455937534570694
0.06346005201339722
0.02124864049255848
-0.0050881062634289265
0.1082964763045311
-0.08456841856241226
0.11097682267427444
0.07941687852144241
0.04292360320687294
-0.09717794507741928
0.1098754033446312
-0.07121402770280838
0.03610285744071007
0.014570213854312897
0.00657851854339242
-0.07898697257041931
-0.08683880418539047
0.051439352333545685
-0.09135229140520096
0.0034752842038869858
-0.058251697570085526
-0.08320087939500809
0.01745692640542984
0.004006783477962017
0.03866716846823692
-0.02986809052526951
0.07706470787525177
-0.10790639370679855
0.05166495218873024
-0.08832446485757828
-0.10791286081075668
0.03986831381917
0.0571565255522728
0.038359105587005615
-0.08441977947950363
0.08683042228221893
-0.08661500364542007
0.05366027355194092
-0.031825874000787735
0.020689114928245544
-0.10255450755357742
0.11825475841760635
0.05766678228974342
0.07009615749120712
-0.01566729135811329
-0.07513273507356644
-0.03788461908698082
-0.031029896810650826
-0.0408921055495739
-0.07382283359766006
-0.09117783606052399
0.034887898713350296
0.02502022311091423
-0.04915895313024521
-0.051483310759067535
-0.09911081939935684
-0.0011863581603392959
0.09445331245660782
0.034545477479696274
0.05493530258536339
-0.03582628071308136
0.09801972657442093
0.09181604534387589
-0.0189313106238842
0.07760359346866608
0.05844099447131157
-0.07798841595649719
-0.05272622033953667
-0.032498475164175034
0.08585632592439651
0.010860570706427097
-0.11945480108261108
-0.0792645588517189
-0.07325761765241623
0.03997287154197693
0.07121621817350388
-0.04922002553939819
0.012755856849253178
0.05380851775407791
0.017639150843024254
0.02752535790205002
-0.0011393948225304484
-0.10659312456846237
0.03267566114664078
0.04218297824263573
0.02722453884780407
0.034727949649095535
-0.0769040510058403
-0.03732403367757797
-0.07102092355489731
0.09237862378358841
-0.12375963479280472
0.0521450974047184
-0.09072715044021606
-0.07878550887107849
-0.02114243060350418
-0.028664370998740196
0.050441812723875046
0.029241099953651428
0.061551909893751144
0.05652016028761864
-0.09036112576723099
0.06859604269266129
-0.09182962030172348
-0.061679940670728683
0.015415694564580917
0.10144422203302383
-0.024691475555300713
0.04885926842689514
-0.06145315617322922
-0.018100421875715256
-0.05727909505367279
0.0003544552018865943
-0.0512348935008049
0.05519351363182068
-0.0535319484770298
0.08203814178705215
0.025511668995022774
-0.08435717225074768
0.09953606873750687
-0.07572788745164871
-0.019426079466938972
-0.009930151514708996
-0.10107210278511047
0.016114283353090286
-0.016549477353692055
0.02248593606054783
-0.008635473437607288
0.008667782880365849
0.0355125367641449
-0.10083884000778198
-0.08768921345472336
0.08908233046531677
-0.03869546949863434
0.06913576275110245
-0.046705760061740875
0.06140363588929176
0.04813077673316002
0.02821277268230915
0.10328741371631622
0.09263277053833008
-0.05437929183244705
-0.08613105118274689
0.033749911934137344
0.09257040917873383
-0.041215069591999054
-0.003930923994630575
0.09527585655450821
-0.025463232770562172
0.031713295727968216
-0.07378727197647095
-0.0689726248383522
-0.052925121039152145
0.06405200064182281
0.09482156485319138
0.021311331540346146
0.07883155345916748
0.05670195072889328
-0.03337113931775093
-0.10168852657079697
0.09624259918928146
-0.056662485003471375
0.03408976271748543
0.029804706573486328
-0.05746867135167122
0.07853618264198303
-0.10107041150331497
0.06640676409006119
-0.012109242379665375
-0.028263144195079803
0.0879870280623436
0.046662844717502594
-0.04019372537732124
-0.04213095083832741
-0.08792730420827866
0.03297332301735878
0.005128178279846907
-0.0840514600276947
0.09108057618141174
-0.06354334205389023
0.014996947720646858
0.08387169986963272
-0.04054935649037361
0.06686227768659592
-0.08968310058116913
-0.05707194656133652
-0.03965093940496445
-0.0372283011674881
-0.030915718525648117
-0.061886172741651535
0.05792074277997017
-0.025691131129860878
-0.06976117938756943
0.03657235577702522
-0.012020915746688843
0.11210855841636658
0.09407845884561539
0.07133623212575912
-0.021153779700398445
0.0523313544690609
-0.0480775348842144
0.08050534874200821
0.026075094938278198
-0.08090037107467651
0.08400911837816238
-0.09574118256568909
0.01556911040097475
-0.06167998164892197
0.06866807490587234
0.006407156586647034
0.009721918031573296
0.013789575546979904
0.07480373233556747
0.07278481125831604
-0.09377578645944595
0.07783309370279312
-0.008553555235266685
-0.03426838666200638
0.010496499948203564
-0.09344222396612167
0.02573837712407112
-0.038158565759658813
-0.06752215325832367
0.009948654100298882
-0.02374507486820221
-0.056295547634363174
-0.047548286616802216
0.037629030644893646
0.08863405883312225
-0.07438179105520248
-0.025613747537136078
-0.023718608543276787
0.07978899776935577
-0.05910397320985794
0.03730584681034088
0.04494449123740196
0.08179830759763718
-0.0357016958296299
0.008887219242751598
-0.04494372382760048
0.029785925522446632
0.03347727656364441
0.10970644652843475
-0.03392613306641579
0.06334224343299866
-0.021108534187078476
-0.08251953125
0.01004886906594038
-0.1112438440322876
0.054847586899995804
0.030204616487026215
-0.12155413627624512
0.06393638253211975
0.020550042390823364
0.02989264391362667
0.05720009654760361
-0.09035840630531311
0.009519168175756931
-0.09645231068134308
0.04034297540783882
0.0890674963593483
-0.06949779391288757
-0.07650548964738846
-0.09562456607818604
0.07351522892713547
-0.02661432884633541
-0.021861910820007324
0.051253605633974075
0.02248065546154976
-0.04387905076146126
-0.024073226377367973
-0.004320621490478516
0.019906340166926384
-0.1285794973373413
0.040700480341911316
-0.017261145636439323
0.09221573919057846
-0.029034005478024483
0.07789750397205353
-0.07576803117990494
0.08507588505744934
0.07341302186250687
-0.010460385121405125
0.0994492843747139
0.08872083574533463
-0.05013962835073471
0.02818925678730011
-0.07140559703111649
0.10700932890176773
0.07151802629232407
0.07442570477724075
0.00574080552905798
0.02845144271850586
-0.05416513979434967
-0.0899820402264595
-0.0840621292591095
0.017548851668834686
0.020891733467578888
-0.09062987565994263
-0.07198136299848557
0.02857886254787445
-0.0008852611063048244
-0.01870492473244667
0.0960058942437172
0.01917319931089878
-0.0864129588007927
0.10790611058473587
0.061856709420681
-0.01300031878054142
0.01257795374840498
0.004911408759653568
0.04560061916708946
-0.0811886191368103
0.05335579067468643
-0.065048947930336
-0.07965417951345444
-0.05415951833128929
0.10279660671949387
0.057632602751255035
0.011988704092800617
-0.07414226979017258
0.03664669767022133
-0.04755830019712448
-0.08313557505607605
-0.05691177025437355
0.06152145564556122
-0.028992367908358574
0.0853673592209816
-0.09889885783195496
-0.032555341720581055
0.08001349866390228
-0.04406861215829849
-0.003964212257415056
-0.046988923102617264
0.020385174080729485
-0.03508777916431427
0.03167763724923134
-0.0473434254527092
0.00913576316088438
0.013561592437326908
-0.02403113804757595
0.058912694454193115
0.05602453276515007
-0.07890069484710693
-0.0914212092757225
-0.0473443828523159
0.0032461045775562525
-0.027989692986011505
-0.03626256436109543
-0.013567384332418442
-0.02060454897582531
0.0048919860273599625
0.08841210603713989
0.11736481636762619
0.02115880511701107
0.09183528274297714
-0.012375904247164726
-0.03968650475144386
0.059503212571144104
-0.004295154474675655
-0.10379037261009216
0.005532955750823021
0.03584198281168938
-0.09464094787836075
-0.03326215222477913
-0.00865508895367384
0.02866649068892002
0.0187512319535017
0.03238854557275772
-0.10532591491937637
0.0030944214668124914
-0.004795033950358629
-0.02437097392976284
-0.06749049574136734
0.03080766089260578
-0.026784643530845642
-0.08431357890367508
-0.06334962695837021
-0.018505914136767387
-0.0317726731300354
0.0031591563019901514
-0.04103418439626694
-0.018697751685976982
0.07386233657598495
0.04134601727128029
0.023190129548311234
-0.04919670149683952
0.07608716934919357
-0.0657128319144249
0.03527436405420303
-0.0035713391844183207
0.10565730929374695
-0.02077014371752739
0.04390956833958626
-0.03284326568245888
-0.021187610924243927
0.016365190967917442
0.06662843376398087
0.03623759001493454
-0.08322613686323166
-0.1069345697760582
0.0028937598690390587
-0.12227567285299301
0.08350247889757156
0.060791853815317154
0.06650206446647644
-0.08430703729391098
0.06531321257352829
0.07470203191041946
-0.09555608034133911
0.05439022183418274
0.007001118268817663
-0.022212687879800797
0.02628152072429657
-0.11749792844057083
0.04061157628893852
-0.07333868741989136
0.021579256281256676
0.06806293874979019
0.08581492304801941
-0.09209711849689484
0.09518314898014069
-0.047932419925928116
-0.06411504000425339
-0.06198067218065262
0.09499514102935791
0.018270522356033325
0.04561598226428032
-0.013136359862983227
0.04235483705997467
-0.07749632745981216
-0.09318925440311432
0.05284291133284569
0.0025052360724657774
0.07548080384731293
-0.020833684131503105
0.07863592356443405
-0.09074828028678894
0.021528327837586403
0.0677674189209938
-0.0468282513320446
-0.07222910970449448
0.03533634915947914
0.07877390086650848
0.04275732859969139
0.09114409983158112
-0.04130786657333374
0.07841119915246964
-0.010101606138050556
0.08636700361967087
0.04479946196079254
-0.06369323283433914
-0.07128094136714935
-0.06311123818159103
0.05676455795764923
-0.03711553290486336
0.00905651319772005
0.03438016027212143
-0.0063220965676009655
-0.08621077984571457
-0.03158525750041008
0.057360466569662094
0.06641219556331635
-0.05709533393383026
0.06691551953554153
0.0693727433681488
-0.06258735805749893
0.026583150029182434
0.007189192809164524
-0.006993262562900782
0.08431675285100937
-0.04735387861728668
-0.0929834246635437
0.0738096684217453
-0.028264909982681274
-0.0037219063378870487
-0.050843946635723114
0.052906543016433716
-0.04852922633290291
-0.06890842318534851
-0.06420095264911652
-0.0493738055229187
0.07551363855600357
0.032814543694257736
0.05684872344136238
-0.04234997555613518
-0.06497569382190704
0.0672362819314003
0.04817725345492363
0.11470064520835876
-0.10017599910497665
0.01688596047461033
0.0045032622292637825
0.08109632134437561
0.03194841742515564
-0.03412674739956856
-0.05298757553100586
0.07721885293722153
-0.06132139638066292
0.01692279800772667
0.07284007966518402
-0.06605725735425949
0.07194522023200989
0.05201457813382149
-0.03731407970190048
-0.021470239385962486
0.04030725732445717
0.023250844329595566
-0.021056074649095535
0.08609237521886826
0.08139347285032272
0.0679292231798172
-0.10320627689361572
0.0018383912974968553
-0.10013574361801147
-0.0005390315782278776
-0.03520109876990318
0.03326774761080742
-0.00773299066349864
-0.001858015195466578
-0.059962570667266846
0.019877130165696144
0.04211321100592613
-0.017629707232117653
-0.06455262750387192
-0.08735862374305725
0.06440116465091705
-0.016540832817554474
0.06985247880220413
0.062392089515924454
0.10415929555892944
-0.0911816954612732
-0.05257202312350273
-0.09922266006469727
-0.0402073934674263
0.004519834648817778
-0.0648924708366394
-0.011969052255153656
0.08767704665660858
-0.04386113956570625
0.0029097844380885363
-0.0640544518828392
-0.08000477403402328
0.04679306223988533
-0.1045096218585968
-0.0497046560049057
-0.09456024318933487
-0.03669198974967003
-0.022856729105114937
0.10153527557849884
-0.06385264545679092
-0.08795028179883957
-0.022647371515631676
-0.05183986574411392
-0.02841721661388874
0.05552209913730621
-0.06520473957061768
0.023588044568896294
-0.03178032860159874
0.08393171429634094
-0.09354966133832932
0.11998306959867477
0.06597650796175003
0.027033818885684013
0.08364860713481903
-0.1010628268122673
-0.0547369047999382
0.07176696509122849
-0.021606817841529846
0.07019785791635513
0.027326228097081184
-0.08989381045103073
-0.05331428721547127
0.02009706199169159
-0.03173463046550751
0.07795514911413193
0.023005003109574318
0.010956726968288422
0.01454203948378563
-0.0023435528855770826
-0.025304006412625313
0.030593998730182648
0.0012611766578629613
0.009860772639513016
0.055235087871551514
-0.027060208842158318
-0.03794680908322334
0.02909991145133972
-0.015918459743261337
-0.028578437864780426
-0.04087880998849869
0.007682390045374632
0.0310125183314085
-0.0226348415017128
0.05791758745908737
0.00012059291475452483
-0.014567929320037365
-0.11474848538637161
-0.06322246789932251
-0.10305875539779663
-0.037155259400606155
-0.06791716814041138
-0.05092950537800789
-0.025642596185207367
0.029881125316023827
0.01974383369088173
-0.09342141449451447
-0.03458006680011749
-0.02991112507879734
-0.07633761316537857
0.07009884715080261
-0.0721675232052803
0.012301214039325714
0.029720813035964966
0.04501264542341232
0.06952346116304398
-0.014761993661522865
0.03263913840055466
0.07125931978225708
-0.06248223036527634
-0.0815868228673935
0.02745773456990719
0.023648373782634735
-0.0704396441578865
0.05790562182664871
0.102813221514225
0.03244839608669281
-0.07916118204593658
-0.07368472218513489
-0.012238805182278156
-0.03519246354699135
-0.10479884594678879
0.01847410574555397
-0.06521335989236832
-0.08029019087553024
-0.0781017541885376
-0.007302942685782909
0.05790918692946434
0.04833833500742912
0.06861826032400131
0.04064178839325905
-0.02461770921945572
-0.018978729844093323
-0.09916188567876816
0.10294954478740692
-0.013677369803190231
-0.056845251470804214
-0.06424716114997864
0.058717865496873856
0.06405416131019592
-0.022277511656284332
0.11606603115797043
-0.02311956323683262
-0.02462315373122692
0.0731019601225853
0.04959140717983246
0.024671267718076706
0.004722991026937962
-0.038586631417274475
-0.0020744549110531807
-0.05536883696913719
-0.029237981885671616
-0.06993768364191055
-0.08005397021770477
0.015817204490303993
0.00232636253349483
-0.033233705908060074
-0.001499620033428073
-0.06175103411078453
-0.07333032786846161
-0.027184994891285896
0.06239595264196396
0.0018408488249406219
-0.01500491052865982
-0.03994765505194664
-0.09892090409994125
-0.013778512366116047
-0.057881440967321396
0.08453784883022308
0.03286077082157135
-0.04093119874596596
0.05401649698615074
-0.004693201277405024
0.12355933338403702
0.08976191282272339
-0.05951928719878197
0.07326532900333405
0.0346854031085968
-0.0387551449239254
0.00032416838803328574
-0.043847084045410156
0.019329752773046494
-0.06359067559242249
0.06410592049360275
0.026130435988307
-0.0827968493103981
-0.04375482723116875
-0.09831153601408005
0.0015915067633613944
-0.05593925341963768
0.07010017335414886
-0.045662425458431244
-0.050518255680799484
0.009107192046940327
0.06664086878299713
0.09131145477294922
0.0788506269454956
-0.007531499955803156
-0.07827524095773697
0.047189272940158844
-0.03966419771313667
-0.015279708430171013
0.03871304914355278
-0.04525722563266754
0.04960079491138458
0.02188347466289997
-0.03220216557383537
-0.08954732865095139
-0.009376458823680878
0.07911354303359985
-0.06046126410365105
0.05791321396827698
-0.047845177352428436
-0.020939506590366364
0.0560687854886055
0.056493621319532394
-0.04195546731352806
0.007141732145100832
0.09716367721557617
0.03925757482647896
-0.006504197139292955
-0.0909658670425415
-0.0796457827091217
-0.0012106059584766626
0.027719322592020035
-0.005938507150858641
0.06860721856355667
0.07921194285154343
0.014493422582745552
0.04934985190629959
0.03919191658496857
0.006621997803449631
0.0467887781560421
-0.027973376214504242
-0.04899534210562706
0.06976480036973953
0.008917022496461868
0.07341133058071136
0.025054043158888817
0.06598741561174393
-0.014194118790328503
-0.06199344992637634
-0.000870360410772264
0.05471944436430931
0.03730534017086029
-0.07833868265151978
0.011875858530402184
0.09948817640542984
-0.019135087728500366
0.05258164554834366
0.09133404493331909
0.001115507329814136
0.03160865604877472
0.08355037122964859
0.005832573398947716
-0.0014705000212416053
-0.06406962126493454
0.06846310943365097
-0.08132025599479675
-0.007346817757934332
-0.033621206879615784
-0.058702487498521805
0.0624266043305397
-0.008706465363502502
-0.07314957678318024
0.03390355035662651
0.06726627051830292
-0.014026336371898651
0.03028426505625248
0.05858725309371948
0.00023126689484342933
-0.0463777594268322
-0.08703802525997162
0.06675120443105698
-0.05034855380654335
-0.0514916330575943
0.032552916556596756
0.11172434687614441
0.09378618746995926
-0.05238309130072594
-0.0568939633667469
-0.04139940068125725
0.05667974799871445
-0.07284501940011978
0.061030153185129166
0.05556198209524155
0.0023415363393723965
0.030186671763658524
0.07776327431201935
0.0697779506444931
-0.12165126949548721
-0.026647357270121574
0.08146097511053085
0.04516623914241791
0.045554473996162415
0.05680699646472931
0.02074892818927765
-0.021254925057291985
0.08131326735019684
0.10543593764305115
0.0562891811132431
-0.029706645756959915
-0.04111874848604202
0.008818629197776318
0.01349128782749176
-0.04008043184876442
-0.08708377927541733
0.09341712296009064
0.03873073682188988
-0.08047430962324142
0.09898974001407623
-0.12498388439416885
0.03290260583162308
-0.0023611511569470167
-0.08323616534471512
0.03197282925248146
0.06815344095230103
-0.04708246514201164
-1.122910816775402e-05
0.07474566996097565
0.08997952938079834
-0.014158823527395725
0.03082229010760784
0.018796708434820175
0.0332636795938015
-0.08919372409582138
-0.06611912697553635
-0.03818851336836815
-0.04608616977930069
-0.03164755180478096
-0.07392210513353348
-0.038193266838788986
0.022565705701708794
0.05340726301074028
0.03309115022420883
0.03588561713695526
-0.030714429914951324
-0.020381566137075424
-0.028551772236824036
0.024371039122343063
-0.09216540306806564
0.09486478567123413
0.0912635400891304
-0.08320168405771255
0.02716963179409504
-0.0834369957447052
0.07805696874856949
0.010623887181282043
-0.013483164831995964
0.06377539783716202
0.07312345504760742
0.06876129657030106
-0.09357241541147232
-0.05852212384343147
-0.06919019669294357
-0.016514252871274948
-0.020006658509373665
-0.07247379422187805
-0.05993381142616272
-0.1005222424864769
-0.03191995248198509
0.02372966706752777
-0.014431202784180641
-0.032039888203144073
-0.04680502787232399
-0.05487136170268059
-0.03811294957995415
0.05694170296192169
0.06801145523786545
-0.08844242244958878
0.018828893080353737
0.05098671093583107
0.050419796258211136
-0.08026252686977386
0.04068438336253166
0.0067556481808424
0.03394508361816406
0.05104978755116463
0.060194991528987885
-0.006969588343054056
0.028777403756976128
-0.0037260709796100855
0.07430373877286911
0.11553028225898743
0.02696562185883522
-0.031212668865919113
-0.017216382548213005
-0.08282701671123505
-0.07422476261854172
-0.07501532137393951
-0.005462986417114735
0.04542279615998268
-0.045717865228652954
-0.06374242901802063
-0.046140290796756744
-0.06926921010017395
0.02248578704893589
-0.005513595417141914
-0.08281279355287552
0.030952759087085724
0.07821967452764511
-0.09320009499788284
-0.1356772929430008
-0.024599172174930573
-0.10181919485330582
-0.002818718319758773
0.09682100266218185
0.027173973619937897
0.06614554673433304
-0.03698673099279404
0.10306842625141144
0.0049721067771315575
0.04050329327583313
0.07758849114179611
0.06527969986200333
0.08475157618522644
0.0342395044863224
-0.02510989084839821
-0.10259993374347687
0.09432153403759003
-0.060218218713998795
-0.01298260036855936
0.010877663269639015
-0.04112386330962181
0.07624933123588562
0.012126915156841278
0.10914327204227448
0.045072562992572784
-0.08354400098323822
-0.02748463861644268
0.04794450104236603
-0.04575711116194725
0.002009269082918763
-0.02264956757426262
0.08068844676017761
0.02123955450952053
-0.07878020405769348
0.04349744692444801
0.08344849199056625
0.06558532267808914
-0.0343712642788887
0.05193125829100609
-0.054795365780591965
-0.07731208205223083
-0.041770465672016144
-0.006114042364060879
0.012875120155513287
-0.06492564082145691
0.07659192383289337
-0.03822239860892296
-0.07527957111597061
0.054836172610521317
0.05179986357688904
0.053926847875118256
0.05004572495818138
0.047959934920072556
-0.02684876322746277
0.08852123469114304
-0.006333969533443451
-0.026758374646306038
0.026665950194001198
0.032446764409542084
0.05578530207276344
-0.02540949545800686
-0.01103067398071289
0.07452479004859924
0.05114984139800072
0.038236308842897415
0.08244843780994415
0.05061320960521698
0.05724070221185684
0.0770099014043808
-0.05718472599983215
-0.008804166689515114
0.03272734209895134
-0.01783154159784317
-0.008425932377576828
-0.03664497286081314
-0.0845714658498764
-0.013785121962428093
0.008204659447073936
0.061190102249383926
-0.07663749903440475
-0.007399083115160465
0.024383487179875374
0.017790144309401512
0.07971498370170593
0.04589719697833061
-0.07302346080541611
-0.05890382453799248
-0.005177019629627466
0.07680602371692657
-0.018989626318216324
0.08294206112623215
0.06355695426464081
-0.0007011372945271432
0.0369085893034935
-0.07568056881427765
0.09122666716575623
-0.08579672873020172
0.051980458199977875
0.010957691818475723
-0.0832674577832222
-0.1071617603302002
-0.00517512671649456
-0.027957024052739143
0.09004814177751541
-0.07703784853219986
0.07240170240402222
0.017948228865861893
0.1086202934384346
0.10363408923149109
0.07819712162017822
-0.055583566427230835
-0.04127402603626251
0.05639936774969101
-0.046385299414396286
-0.028418343514204025
0.04677487537264824
-0.0443606972694397
-0.0667559802532196
0.029079003259539604
0.03940073400735855
-0.03429509326815605
-0.04871053248643875
0.07167436182498932
-0.1024206206202507
-0.022825010120868683
0.09365053474903107
-0.026976879686117172
-0.09065276384353638
0.06291389465332031
-0.046367231756448746
-0.020914342254400253
0.01165973674505949
0.09209128469228745
-0.07776738703250885
-0.0757559984922409
-0.10490959137678146
-0.08149050176143646
-0.025385675951838493
-0.07086935639381409
-0.06143617257475853
0.06491363048553467
-0.02718198299407959
0.012048359960317612
0.011365603655576706
0.10143448412418365
-0.03331370651721954
0.055633921176195145
0.07540149986743927
0.03943838179111481
0.08367131650447845
0.02510109357535839
-0.0038007060065865517
0.07887185364961624
0.058161620050668716
-0.04588550329208374
-0.013163226656615734
-0.04025812819600105
-0.04877447336912155
0.0028783625457435846
0.03442774713039398
-0.023646054789423943
0.0770987942814827
-0.025778012350201607
0.0500030517578125
-0.025171035900712013
-0.08646919578313828
0.0009669975261203945
0.07001475989818573
0.0010608644224703312
0.017779797315597534
0.032764315605163574
0.036613933742046356
-0.08983160555362701
-0.018343599513173103
-0.06538727879524231
0.06440134346485138
-0.07795997709035873
0.009133102372288704
-0.0074879261665046215
0.0662422701716423
-0.08380541950464249
-0.05515644699335098
-0.07530836015939713
0.06283140927553177
0.07495371252298355
0.05133029818534851
-0.08777677267789841
0.0021205581724643707
0.055178202688694
0.07637578248977661
0.047175779938697815
0.08018986135721207
0.05827522650361061
0.09128369390964508
-0.03307614475488663
0.007772842887789011
-0.059303853660821915
0.07684468477964401
-0.0667870044708252
0.08386684954166412
-0.06823817640542984
-0.026965439319610596
0.022198237478733063
-0.022430123761296272
-0.02864946983754635
-0.02209249511361122
0.07843123376369476
-0.08116056025028229
0.05984847992658615
0.0784040316939354
-0.04013983905315399
0.03118821792304516
-0.028364529833197594
0.004044052213430405
0.09422122687101364
-0.0038197506219148636
0.09174101799726486
0.023976540192961693
-0.07420138269662857
-0.01847968064248562
-0.0027951421216130257
-0.05794276297092438
0.027040420100092888
-0.0733572468161583
-0.09184318035840988
-0.08624722063541412
0.08725478500127792
-0.0830414742231369
0.007037576753646135
0.07582267373800278
-0.037210576236248016
0.0728374570608139
-0.03547956794500351
-0.08261006325483322
-0.07106482982635498
-0.003041212446987629
0.07492842525243759
0.011445300653576851
0.0049242242239415646
0.006219545379281044
-0.03874902427196503
-0.055704228579998016
0.09177330136299133
0.0640624612569809
0.028374092653393745
0.05986606329679489
0.058243948966264725
-0.07031132280826569
-0.08840084075927734
0.020931145176291466
0.00031220054370351136
0.04812014475464821
-0.006078016944229603
0.0779167115688324
0.015777239575982094
-0.09406600147485733
-0.004852697253227234
0.027833783999085426
-0.061562828719615936
-0.08545807749032974
-0.048233769834041595
0.07741115242242813
-0.012822429649531841
